{"learner":{"attributes":{},"feature_names":[],"feature_types":[],"gradient_booster":{"model":{"gbtree_model_param":{"num_parallel_tree":"1","num_trees":"5"},"iteration_indptr":[0,5],"tree_info":[0,1,2,3,4],"trees":[{"base_weights":[9.4885015E-1,2.2710319E0,4.7832605E-1,-6.1819762E-2,2.404743E0,-4.3298927E-1,9.837051E-1,-5.5045867E-1,2.436587E0,2.4499598E-1,-5.04195E-1,2.4764593E0,8.8352555E-1,-5.945419E-2,8.77193E-3,-5.502392E-2,2.4482012E0,1.614035E0,-5.655181E-1,8.77193E-3,2.4892406E-1,-2.3100996E-2,1.1548595E0,3.8461536E-2,2.4497058E0,-5.03876E-2,1.7903103E0,-6.164112E-1,8.845829E-2,1.6262649E0,-4.6369064E-1,-2.8636175E-1,1.3295004E0,1.0824742E0,2.451181E0,-4.494382E-2,1.9132855E0,1.7977528E-1,-6.2080276E-1,1.9047618E-1,3.303648E-2,-6.0659595E-2,2.1678832E0,2.0689654E-1,-4.8622108E-1,-3.0795845E-1,1.7283951E-1,-3.5181233E-1,1.3973715E0,3.8461536E-2,1.4035088E-1,9.589041E-2,2.4521665E-1,-4.109589E-2,2.0140612E0,7.692307E-2,-6.2245184E-1,1.15879826E-1,-4.735716E-2,-5.8171745E-2,2.4716735E-1,3.3243483E-1,-5.473906E-1,-5.885898E-1,-1.5963031E-1,1.7283951E-1,-4.2158145E-1,-4.2810982E-1,1.4575301E0,-3.508772E-2,2.0858113E-1,-0E0,-6.241023E-2,1.299435E-1,-1.2335789E-2,1.4963503E-1,1.6483516E-2,1.7977528E-1,-5.607189E-2,-6.1842658E-2,3.649635E-3,9.4771236E-2,-1.953378E-2,1.0619469E-1,-4.9295772E-2,2.0437956E-1,-6.1604585E-2,2.473015E-1,1.3748184E-1],"categories":[],"categories_nodes":[],"categories_segments":[],"categories_sizes":[],"default_left":[0,0,0,0,0,0,0,0,0,0,0,0,0,0,0,0,0,0,0,0,0,0,0,0,0,0,0,0,0,0,0,0,0,0,0,0,0,0,0,0,0,0,0,0,0,0,0,0,0,0,0,0,0,0,0,0,0,0,0,0,0,0,0,0,0,0,0,0,0,0,0,0,0,0,0,0,0,0,0,0,0,0,0,0,0,0,0,0,0],"id":0,"left_children":[1,3,5,-1,7,9,11,13,15,-1,17,19,21,-1,-1,-1,23,25,27,-1,-1,29,31,-1,33,-1,35,37,39,41,43,45,47,49,51,-1,53,-1,55,-1,57,-1,59,-1,61,63,-1,65,67,-1,-1,-1,-1,-1,69,-1,71,-1,73,-1,-1,75,77,79,81,-1,83,85,87,-1,-1,-1,-1,-1,-1,-1,-1,-1,-1,-1,-1,-1,-1,-1,-1,-1,-1,-1,-1],"loss_changes":[4.8805264E3,7.970166E2,2.666385E3,0E0,1.8657617E2,4.2527493E2,5.546936E2,6.654515E-1,6.890527E1,0E0,2.628722E2,6.915039E0,8.5886694E2,0E0,0E0,0E0,5.083008E0,2.218222E1,6.5311646E1,0E0,0E0,5.8585864E2,6.76709E2,0E0,1.2568359E0,0E0,1.5413818E1,2.0403442E1,1.4275488E1,2.0685748E2,3.730873E1,1.3204744E1,2.740005E2,3.2945156E-1,4.951172E-1,0E0,1.26046295E1,0E0,4.6432495E0,0E0,1.2656668E1,0E0,1.1587427E2,0E0,3.1800446E1,1.1935822E1,0E0,1.4342249E1,2.536499E2,0E0,0E0,0E0,0E0,0E0,8.93782E0,0E0,1.864685E0,0E0,1.3560899E1,0E0,0E0,8.437948E0,1.938327E1,1.8794174E0,7.715198E0,0E0,1.0218666E1,3.5766586E1,1.8396729E2,0E0,0E0,0E0,0E0,0E0,0E0,0E0,0E0,0E0,0E0,0E0,0E0,0E0,0E0,0E0,0E0,0E0,0E0,0E0,0E0],"parents":[2147483647,0,0,1,1,2,2,4,4,5,5,6,6,7,7,8,8,10,10,11,11,12,12,16,16,17,17,18,18,21,21,22,22,24,24,26,26,27,27,28,28,29,29,30,30,31,31,32,32,33,33,34,34,36,36,38,38,40,40,42,42,44,44,45,45,47,47,48,48,54,54,56,56,58,58,61,61,62,62,63,63,64,64,66,66,67,67,68,68],"right_children":[2,4,6,-1,8,10,12,14,16,-1,18,20,22,-1,-1,-1,24,26,28,-1,-1,30,32,-1,34,-1,36,38,40,42,44,46,48,50,52,-1,54,-1,56,-1,58,-1,60,-1,62,64,-1,66,68,-1,-1,-1,-1,-1,70,-1,72,-1,74,-1,-1,76,78,80,82,-1,84,86,88,-1,-1,-1,-1,-1,-1,-1,-1,-1,-1,-1,-1,-1,-1,-1,-1,-1,-1,-1,-1],"split_conditions":[2.00001E0,2.00001E0,2.00001E0,-6.1819762E-2,2.00001E0,2.00001E0,2.00001E0,2.00001E0,2.00001E0,2.4499598E-1,2.00001E0,2.00001E0,2.00001E0,-5.945419E-2,8.77193E-3,-5.502392E-2,2.00001E0,2.00001E0,2.00001E0,8.77193E-3,2.4892406E-1,2.00001E0,2.00001E0,3.8461536E-2,2.00001E0,-5.03876E-2,2.00001E0,2.00001E0,2.00001E0,2.00001E0,2.00001E0,2.00001E0,2.00001E0,2.00001E0,2.00001E0,-4.494382E-2,2.00001E0,1.7977528E-1,2.00001E0,1.9047618E-1,2.00001E0,-6.0659595E-2,2.00001E0,2.0689654E-1,2.00001E0,2.00001E0,1.7283951E-1,2.00001E0,2.00001E0,3.8461536E-2,1.4035088E-1,9.589041E-2,2.4521665E-1,-4.109589E-2,2.00001E0,7.692307E-2,2.00001E0,1.15879826E-1,2.00001E0,-5.8171745E-2,2.4716735E-1,2.00001E0,2.00001E0,2.00001E0,2.00001E0,1.7283951E-1,2.00001E0,2.00001E0,2.00001E0,-3.508772E-2,2.0858113E-1,-0E0,-6.241023E-2,1.299435E-1,-1.2335789E-2,1.4963503E-1,1.6483516E-2,1.7977528E-1,-5.607189E-2,-6.1842658E-2,3.649635E-3,9.4771236E-2,-1.953378E-2,1.0619469E-1,-4.9295772E-2,2.0437956E-1,-6.1604585E-2,2.473015E-1,1.3748184E-1],"split_indices":[18,1247,1082,0,1015,1014,38,85,502,0,385,138,403,0,0,0,1466,851,379,0,0,496,704,0,1476,0,820,225,337,137,152,48,582,64,1461,0,827,0,282,0,826,0,45,0,620,893,0,2091,1186,0,0,0,0,0,855,0,172,0,822,0,0,829,274,2111,895,0,2092,1246,564,0,0,0,0,0,0,0,0,0,0,0,0,0,0,0,0,0,0,0,0],"split_type":[0,0,0,0,0,0,0,0,0,0,0,0,0,0,0,0,0,0,0,0,0,0,0,0,0,0,0,0,0,0,0,0,0,0,0,0,0,0,0,0,0,0,0,0,0,0,0,0,0,0,0,0,0,0,0,0,0,0,0,0,0,0,0,0,0,0,0,0,0,0,0,0,0,0,0,0,0,0,0,0,0,0,0,0,0,0,0,0,0],"sum_hessian":[7.8457607E3,2.0582402E3,5.7875205E3,9.0880005E1,1.9673601E3,2.0646401E3,3.7228804E3,2.0800001E1,1.9465602E3,4.8960003E1,2.0156802E3,2.3264001E2,3.4902402E3,1.952E1,1.2800001E0,7.3600006E0,1.9392002E3,5.6000004E1,1.9596802E3,1.2800001E0,2.3136002E2,8.0416003E2,2.68608E3,1.6000001E0,1.9376001E3,4.1600003E0,5.1840004E1,1.8182401E3,1.4144E2,1.6896E2,6.352001E2,2.9024002E2,2.39584E3,2.88E0,1.9347201E3,2.5600002E0,4.9280003E1,2.5600002E0,1.8156802E3,3.2000003E0,1.3824E2,3.2960003E1,1.3600002E2,4.8E0,6.304E2,2.8800003E2,2.2400002E0,9.28E1,2.3030403E3,1.6000001E0,1.2800001E0,1.9200001E0,1.9328002E3,1.9200001E0,4.7360004E1,1.6000001E0,1.8140801E3,8.320001E0,1.2992001E2,1.3440001E1,1.22560005E2,4.3520004E1,5.8688007E2,9.8560005E1,1.8944002E2,2.2400002E0,9.0560005E1,7.328001E1,2.2297603E3,1.2800001E0,4.608E1,4.8E0,1.8092802E3,6.0800004E0,1.2384001E2,4.4800005E0,3.904E1,2.5600002E0,5.8432007E2,9.408001E1,4.4800005E0,5.1200004E0,1.8432E2,3.5200002E0,8.704001E1,4.4800005E0,6.88E1,1.6576001E2,2.0640002E3],"tree_param":{"num_deleted":"0","num_feature":"2341","num_nodes":"89","size_leaf_vector":"1"}},{"base_weights":[-4.0075138E-1,2.4692571E-1,-4.3075076E-1,2.3781677E-1,-4.381354E-1,2.2043009E-1,-4.4443753E-1,1.001363E-1,-4.72646E-1,1.9180632E0,-8.310249E-3,-6.2223727E-1,-3.3771688E-1,-4.494382E-2,2.2621563E-1,-6.103709E-2,2.5824964E-1,1.7977528E-1,-6.245332E-1,2.3762374E-1,-3.5188052E-1,-4.9586773E-1,6.2249464E-1,-0E0,-6.2482037E-2,8.461538E-1,-3.7237358E-1,-5.2818686E-2,1.7699115E-2,-1.9157088E-3,9.000337E-2,1.8796991E-1,1.2690355E-2,9.0038314E-2,-3.9007813E-2],"categories":[],"categories_nodes":[],"categories_segments":[],"categories_sizes":[],"default_left":[0,0,0,0,0,0,0,0,0,0,0,0,0,0,0,0,0,0,0,0,0,0,0,0,0,0,0,0,0,0,0,0,0,0,0],"id":1,"left_children":[1,-1,3,-1,5,-1,7,9,11,13,15,17,19,-1,-1,-1,21,-1,23,-1,25,27,29,-1,-1,31,33,-1,-1,-1,-1,-1,-1,-1,-1],"loss_changes":[6.766577E2,0E0,1.6214014E2,0E0,1.2998901E2,0E0,1.18782104E2,7.522394E1,1.4812036E2,1.8515182E1,5.8092793E1,2.0479736E1,1.4944171E2,0E0,0E0,0E0,6.923227E1,0E0,6.2438965E-1,0E0,9.475842E1,1.8827629E0,3.0227318E1,0E0,0E0,4.808102E1,8.559027E1,0E0,0E0,0E0,0E0,0E0,0E0,0E0,0E0],"parents":[2147483647,0,0,2,2,4,4,6,6,7,7,8,8,9,9,10,10,11,11,12,12,16,16,18,18,20,20,21,21,22,22,25,25,26,26],"right_children":[2,-1,4,-1,6,-1,8,10,12,14,16,18,20,-1,-1,-1,22,-1,24,-1,26,28,30,-1,-1,32,34,-1,-1,-1,-1,-1,-1,-1,-1],"split_conditions":[2.00001E0,2.4692571E-1,2.00001E0,2.3781677E-1,2.00001E0,2.2043009E-1,2.00001E0,2.00001E0,2.00001E0,2.00001E0,2.00001E0,2.00001E0,2.00001E0,-4.494382E-2,2.2621563E-1,-6.103709E-2,2.00001E0,1.7977528E-1,2.00001E0,2.3762374E-1,2.00001E0,2.00001E0,2.00001E0,-0E0,-6.2482037E-2,2.00001E0,2.00001E0,-5.2818686E-2,1.7699115E-2,-1.9157088E-3,9.000337E-2,1.8796991E-1,1.2690355E-2,9.0038314E-2,-3.9007813E-2],"split_indices":[327,0,289,0,1138,0,45,513,372,195,819,1296,502,0,0,0,1101,0,134,0,593,827,309,0,0,640,318,0,0,0,0,0,0,0,0],"split_type":[0,0,0,0,0,0,0,0,0,0,0,0,0,0,0,0,0,0,0,0,0,0,0,0,0,0,0,0,0,0,0,0,0,0,0],"sum_hessian":[7.8457607E3,8.032001E1,7.7654404E3,1.952E1,7.7459204E3,1.76E1,7.7283203E3,3.8048004E2,7.3478403E3,2.0480001E1,3.6000003E2,3.4828801E3,3.8649602E3,2.5600002E0,1.7920002E1,1.1008001E2,2.4992001E2,2.5600002E0,3.4803203E3,1.92E1,3.8457603E3,8.128001E1,1.6864001E2,1.6000001E0,3.4787202E3,6.400001E1,3.7817603E3,7.776E1,3.5200002E0,5.1200005E1,1.1744001E2,2.5600002E1,3.84E1,5.1200005E1,3.7305603E3],"tree_param":{"num_deleted":"0","num_feature":"2341","num_nodes":"35","size_leaf_vector":"1"}},{"base_weights":[7.473148E-2,2.4686446E0,-1.08565025E-1,-5.03876E-2,2.4918766E0,7.762528E-1,-4.198156E-1,2.4954765E-1,5.2631576E-2,4.1737252E-1,1.5520575E0,2.0065277E0,-4.7903007E-1,2.2105546E0,3.0832762E-1,-5.8956917E-2,1.6141866E0,2.4770978E-1,-5.945419E-2,1.1760883E0,-5.390833E-1,-5.109489E-2,2.39255E-1,2.0430107E-1,2.813566E-1,2.316541E0,1.4642826E0,-5.9714794E-2,1.4126439E0,3.255392E-1,-5.7409936E-1,1.0781577E0,2.4144518E-1,2.3584905E-1,1.3354038E-1,-5.69395E-2,1.5095136E0,1.5521158E0,5.128205E-1,-6.1731428E-2,9.7189295E-1,2.3655914E-1,-5.852161E-1,-4.494382E-2,1.1577793E0,2.821166E-1,-3.9907458E-1,7.096141E-1,1.624358E0,8.789625E-1,1.8163671E0,1.4379084E-1,1.750547E-1,-5.852417E-2,1.1992263E0,2.2222221E-1,-5.9029573E-1,-8.264462E-3,1.2529458E-1,1.4318706E-1,2.6318748E-2,2.7131781E-2,-4.4615384E-2,-3.2846715E-2,7.974594E-2,-2.3668637E-2,1.6512725E-1,1.2690707E-1,-0E0,-4.3209877E-2,1.8721926E-1,1.11111104E-1,-2.4937654E-3,-5.660377E-2,1.3859275E-1,-1.7841449E-2,-6.104016E-2],"categories":[],"categories_nodes":[],"categories_segments":[],"categories_sizes":[],"default_left":[0,0,0,0,0,0,0,0,0,0,0,0,0,0,0,0,0,0,0,0,0,0,0,0,0,0,0,0,0,0,0,0,0,0,0,0,0,0,0,0,0,0,0,0,0,0,0,0,0,0,0,0,0,0,0,0,0,0,0,0,0,0,0,0,0,0,0,0,0,0,0,0,0,0,0,0,0],"id":2,"left_children":[1,3,5,-1,7,9,11,-1,-1,13,15,17,19,21,23,-1,25,-1,-1,27,29,-1,-1,-1,31,33,35,-1,37,39,41,43,45,-1,-1,-1,47,49,51,-1,53,-1,55,-1,57,59,61,63,65,67,69,-1,71,-1,73,-1,75,-1,-1,-1,-1,-1,-1,-1,-1,-1,-1,-1,-1,-1,-1,-1,-1,-1,-1,-1,-1],"loss_changes":[3.4433943E3,3.979834E1,2.0078934E3,0E0,2.6062012E0,5.276061E2,7.758444E2,0E0,0E0,2.5324332E2,8.074866E1,1.5897522E2,5.2401355E2,3.801346E1,5.6753212E1,0E0,5.7998047E1,0E0,0E0,7.83111E1,1.5404651E2,0E0,0E0,0E0,3.814695E1,1.0008545E0,4.5310425E1,0E0,1.9690643E1,1.2153265E2,1.6100916E2,7.4921646E0,3.0107521E1,0E0,0E0,0E0,4.2299072E1,2.345633E1,7.059923E0,0E0,4.251497E1,0E0,7.071826E1,0E0,6.567787E0,2.3198608E1,2.3038464E0,5.8391495E0,2.1069458E1,1.4277958E1,1.3386261E1,0E0,3.4498E0,0E0,3.4862732E1,0E0,4.0128906E1,0E0,0E0,0E0,0E0,0E0,0E0,0E0,0E0,0E0,0E0,0E0,0E0,0E0,0E0,0E0,0E0,0E0,0E0,0E0,0E0],"parents":[2147483647,0,0,1,1,2,2,4,4,5,5,6,6,9,9,10,10,11,11,12,12,13,13,14,14,16,16,19,19,20,20,24,24,25,25,26,26,28,28,29,29,30,30,31,31,32,32,36,36,37,37,38,38,40,40,42,42,44,44,45,45,46,46,47,47,48,48,49,49,50,50,52,52,54,54,56,56],"right_children":[2,4,6,-1,8,10,12,-1,-1,14,16,18,20,22,24,-1,26,-1,-1,28,30,-1,-1,-1,32,34,36,-1,38,40,42,44,46,-1,-1,-1,48,50,52,-1,54,-1,56,-1,58,60,62,64,66,68,70,-1,72,-1,74,-1,76,-1,-1,-1,-1,-1,-1,-1,-1,-1,-1,-1,-1,-1,-1,-1,-1,-1,-1,-1,-1],"split_conditions":[2.00001E0,2.00001E0,2.00001E0,-5.03876E-2,2.00001E0,2.00001E0,2.00001E0,2.4954765E-1,5.2631576E-2,2.00001E0,2.00001E0,2.00001E0,2.00001E0,2.00001E0,2.00001E0,-5.8956917E-2,2.00001E0,2.4770978E-1,-5.945419E-2,2.00001E0,2.00001E0,-5.109489E-2,2.39255E-1,2.0430107E-1,2.00001E0,2.00001E0,2.00001E0,-5.9714794E-2,2.00001E0,2.00001E0,2.00001E0,2.00001E0,2.00001E0,2.3584905E-1,1.3354038E-1,-5.69395E-2,2.00001E0,2.00001E0,2.00001E0,-6.1731428E-2,2.00001E0,2.3655914E-1,2.00001E0,-4.494382E-2,2.00001E0,2.00001E0,2.00001E0,2.00001E0,2.00001E0,2.00001E0,2.00001E0,1.4379084E-1,2.00001E0,-5.852417E-2,2.00001E0,2.2222221E-1,2.00001E0,-8.264462E-3,1.2529458E-1,1.4318706E-1,2.6318748E-2,2.7131781E-2,-4.4615384E-2,-3.2846715E-2,7.974594E-2,-2.3668637E-2,1.6512725E-1,1.2690707E-1,-0E0,-4.3209877E-2,1.8721926E-1,1.11111104E-1,-2.4937654E-3,-5.660377E-2,1.3859275E-1,-1.7841449E-2,-6.104016E-2],"split_indices":[953,64,1725,0,2340,702,1146,0,0,1186,1138,372,1616,1246,2110,0,893,0,0,134,401,0,0,0,721,2111,498,0,719,327,1084,2145,48,0,0,0,1204,620,666,0,826,0,549,0,903,2132,7,340,836,1728,901,0,669,0,824,0,484,0,0,0,0,0,0,0,0,0,0,0,0,0,0,0,0,0,0,0,0],"split_type":[0,0,0,0,0,0,0,0,0,0,0,0,0,0,0,0,0,0,0,0,0,0,0,0,0,0,0,0,0,0,0,0,0,0,0,0,0,0,0,0,0,0,0,0,0,0,0,0,0,0,0,0,0,0,0,0,0,0,0,0,0,0,0,0,0,0,0,0,0,0,0,0,0,0,0,0,0],"sum_hessian":[7.8457607E3,5.5712006E2,7.2886406E3,4.1600003E0,5.5296E2,1.8963202E3,5.3923203E3,5.5168005E2,1.2800001E0,1.2976001E3,5.9872003E2,1.2768001E2,5.26464E3,7.328001E1,1.2243201E3,1.6640001E1,5.8208E2,1.0816001E2,1.952E1,1.8368001E2,5.0809604E3,4.4800005E0,6.88E1,1.76E1,1.2067201E3,9.9840004E1,4.8224002E2,2.1440002E1,1.6224E2,1.9744002E2,4.8835205E3,5.6320004E1,1.1504E3,9.440001E1,5.4400005E0,1.0240001E1,4.7200003E2,1.3984001E2,2.2400002E1,8.032001E1,1.1712001E2,1.76E1,4.8659204E3,2.5600002E0,5.3760002E1,1.0822401E3,6.816E1,6.0160004E1,4.1184003E2,4.0640003E1,9.9200005E1,5.1200004E0,1.728E1,1.4720001E1,1.0240001E2,8.000001E0,4.8579204E3,3.8400002E0,4.9920002E1,1.6320002E1,1.06592E3,4.1600003E0,6.400001E1,4.4800005E0,5.5680004E1,5.76E0,4.0608002E2,2.7840002E1,1.2800001E1,2.2400002E0,9.696001E1,2.2400002E0,1.5040001E1,9.6E0,9.28E1,2.2656001E2,4.6313604E3],"tree_param":{"num_deleted":"0","num_feature":"2341","num_nodes":"77","size_leaf_vector":"1"}},{"base_weights":[-6.2428313E-1,1.5384614E-1,-6.249203E-2],"categories":[],"categories_nodes":[],"categories_segments":[],"categories_sizes":[],"default_left":[0,0,0],"id":3,"left_children":[1,-1,-1],"loss_changes":[1.17751465E1,0E0,0E0],"parents":[2147483647,0,0],"right_children":[2,-1,-1],"split_conditions":[2.00001E0,1.5384614E-1,-6.249203E-2],"split_indices":[16,0,0],"split_type":[0,0,0],"sum_hessian":[7.8457607E3,1.6000001E0,7.8441606E3],"tree_param":{"num_deleted":"0","num_feature":"2341","num_nodes":"3","size_leaf_vector":"1"}},{"base_weights":[1.4528289E-3,2.1001544E0,-3.641173E-1,2.155955E0,-5.9934318E-2,1.9004215E0,-4.8958865E-1,1.4083534E0,2.2382936E0,-5.579399E-2,1.9617224E0,2.4202369E-1,-5.0980824E-1,1.9824561E0,8.383433E-1,1.9480519E-1,2.2671912E0,2.9411763E-1,2.0424776E0,1.8294635E0,-5.2845085E-1,4.4176704E-1,2.260616E0,-4.564315E-2,1.0655737E0,-5.4404147E-2,8.2949305E-1,-3.448276E-2,2.279987E0,-5.6776553E-2,1.5819208E-1,5.334539E-1,2.1450071E0,-5.502392E-2,2.253521E0,4.016827E-1,-5.7445675E-1,-3.508772E-2,5.990783E-2,1.2068965E-1,2.3496762E-1,-1.7509727E-1,1.3441372E0,2.7131781E-2,1.283186E-1,4.085603E-1,2.2969882E0,-5.6776553E-2,1.4754097E-1,-3.8461536E-2,2.1948779E0,1.8518519E-2,2.3637263E-1,-6.067678E-2,5.3235424E-1,2.2771473E-1,-5.8623946E-1,-5.3254437E-2,3.9823008E-1,-1.16279066E-1,1.5079365E0,-1.7412936E-2,1.7283951E-1,1.0635697E0,2.3151956E0,3.649635E-2,2.227488E0,1.4906833E-1,5.0617087E-1,7.142857E-1,-5.890352E-1,-4.109589E-2,1.15384616E-1,-4.639175E-2,5.2631576E-2,8.77193E-3,1.5553121E-1,5.7377048E-2,2.015504E-1,-1.2345678E-2,2.3208964E-1,-4.7619045E-2,9.6491225E-2,-1.6853932E-2,2.2490096E-1,1.7977528E-1,4.8603438E-2,-1.9607842E-2,1.318408E-1,1.7977528E-1,-5.903734E-2],"categories":[],"categories_nodes":[],"categories_segments":[],"categories_sizes":[],"default_left":[0,0,0,0,0,0,0,0,0,0,0,0,0,0,0,0,0,0,0,0,0,0,0,0,0,0,0,0,0,0,0,0,0,0,0,0,0,0,0,0,0,0,0,0,0,0,0,0,0,0,0,0,0,0,0,0,0,0,0,0,0,0,0,0,0,0,0,0,0,0,0,0,0,0,0,0,0,0,0,0,0,0,0,0,0,0,0,0,0,0,0],"id":4,"left_children":[1,3,5,7,-1,9,11,13,15,-1,17,-1,19,21,23,25,27,29,31,33,35,37,39,-1,41,-1,43,-1,45,-1,-1,47,49,-1,51,53,55,-1,-1,-1,-1,57,59,-1,-1,61,63,-1,-1,-1,65,-1,-1,-1,67,-1,69,-1,71,73,75,-1,-1,77,79,81,83,-1,85,87,89,-1,-1,-1,-1,-1,-1,-1,-1,-1,-1,-1,-1,-1,-1,-1,-1,-1,-1,-1,-1],"loss_changes":[6.020977E3,1.7666016E2,1.8999618E3,6.707324E1,0E0,5.400232E1,3.738678E2,3.625908E1,6.0143066E1,0E0,4.5557983E1,0E0,2.7530017E2,2.3429123E1,1.810379E1,7.672909E0,3.459619E1,1.976707E1,4.9411865E1,5.1656143E1,2.6732092E2,1.4521344E0,1.6725006E0,0E0,1.7944191E1,0E0,1.8499718E0,0E0,3.1092773E1,0E0,0E0,2.3782766E1,3.9401855E1,0E0,9.272583E0,3.9165253E1,2.011814E2,0E0,0E0,0E0,0E0,2.3187988E0,1.0212807E1,0E0,0E0,8.206839E0,1.9937988E1,0E0,0E0,0E0,2.1025879E1,0E0,0E0,0E0,5.806595E0,0E0,2.196106E1,0E0,3.237875E0,1.396863E0,2.4068909E0,0E0,0E0,6.4715195E0,1.394043E1,3.0678885E0,1.5611572E1,0E0,5.785309E0,7.4961314E0,1.9944092E1,0E0,0E0,0E0,0E0,0E0,0E0,0E0,0E0,0E0,0E0,0E0,0E0,0E0,0E0,0E0,0E0,0E0,0E0,0E0,0E0],"parents":[2147483647,0,0,1,1,2,2,3,3,5,5,6,6,7,7,8,8,10,10,12,12,13,13,14,14,15,15,16,16,17,17,18,18,19,19,20,20,21,21,22,22,24,24,26,26,28,28,31,31,32,32,34,34,35,35,36,36,41,41,42,42,45,45,46,46,50,50,54,54,56,56,58,58,59,59,60,60,63,63,64,64,65,65,66,66,68,68,69,69,70,70],"right_children":[2,4,6,8,-1,10,12,14,16,-1,18,-1,20,22,24,26,28,30,32,34,36,38,40,-1,42,-1,44,-1,46,-1,-1,48,50,-1,52,54,56,-1,-1,-1,-1,58,60,-1,-1,62,64,-1,-1,-1,66,-1,-1,-1,68,-1,70,-1,72,74,76,-1,-1,78,80,82,84,-1,86,88,90,-1,-1,-1,-1,-1,-1,-1,-1,-1,-1,-1,-1,-1,-1,-1,-1,-1,-1,-1,-1],"split_conditions":[2.00001E0,2.00001E0,2.00001E0,2.00001E0,-5.9934318E-2,2.00001E0,2.00001E0,2.00001E0,2.00001E0,-5.579399E-2,2.00001E0,2.4202369E-1,2.00001E0,2.00001E0,2.00001E0,2.00001E0,2.00001E0,2.00001E0,2.00001E0,2.00001E0,2.00001E0,2.00001E0,2.00001E0,-4.564315E-2,2.00001E0,-5.4404147E-2,2.00001E0,-3.448276E-2,2.00001E0,-5.6776553E-2,1.5819208E-1,2.00001E0,2.00001E0,-5.502392E-2,2.00001E0,2.00001E0,2.00001E0,-3.508772E-2,5.990783E-2,1.2068965E-1,2.3496762E-1,2.00001E0,2.00001E0,2.7131781E-2,1.283186E-1,2.00001E0,2.00001E0,-5.6776553E-2,1.4754097E-1,-3.8461536E-2,2.00001E0,1.8518519E-2,2.3637263E-1,-6.067678E-2,2.00001E0,2.2771473E-1,2.00001E0,-5.3254437E-2,2.00001E0,2.00001E0,2.00001E0,-1.7412936E-2,1.7283951E-1,2.00001E0,2.00001E0,2.00001E0,2.00001E0,1.4906833E-1,2.00001E0,2.00001E0,2.00001E0,-4.109589E-2,1.15384616E-1,-4.639175E-2,5.2631576E-2,8.77193E-3,1.5553121E-1,5.7377048E-2,2.015504E-1,-1.2345678E-2,2.3208964E-1,-4.7619045E-2,9.6491225E-2,-1.6853932E-2,2.2490096E-1,1.7977528E-1,4.8603438E-2,-1.9607842E-2,1.318408E-1,1.7977528E-1,-5.903734E-2],"split_indices":[1336,455,1020,1253,0,841,247,640,1722,0,828,0,94,894,893,906,1863,466,560,894,547,665,901,0,894,0,905,0,1606,0,0,287,835,0,1054,1061,492,0,0,0,0,1021,905,0,0,901,1613,0,0,0,836,0,0,0,1055,0,287,0,575,2035,899,0,0,894,1692,466,832,0,1060,513,195,0,0,0,0,0,0,0,0,0,0,0,0,0,0,0,0,0,0,0,0],"split_type":[0,0,0,0,0,0,0,0,0,0,0,0,0,0,0,0,0,0,0,0,0,0,0,0,0,0,0,0,0,0,0,0,0,0,0,0,0,0,0,0,0,0,0,0,0,0,0,0,0,0,0,0,0,0,0,0,0,0,0,0,0,0,0,0,0,0,0,0,0,0,0,0,0,0,0,0,0,0,0,0,0,0,0,0,0,0,0,0,0,0,0],"sum_hessian":[7.8457607E3,1.1632001E3,6.6825605E3,1.1398401E3,2.3360003E1,3.5008002E2,6.3324805E3,1.14880005E2,1.0249601E3,8.320001E0,3.4176E2,4.2880005E1,6.2896006E3,5.6000004E1,5.8880005E1,1.4400001E1,1.01056006E3,1.6000002E1,3.2576E2,4.8960003E1,6.2406406E3,8.960001E0,4.7040005E1,8.64E0,5.024E1,6.7200003E0,7.6800003E0,4.8E0,1.0057601E3,9.920001E0,6.0800004E0,2.112E1,3.0464E2,7.3600006E0,4.1600002E1,2.9376E2,5.9468804E3,1.2800001E0,7.6800003E0,4.8E0,4.224E1,9.280001E0,4.0960003E1,4.1600003E0,3.5200002E0,9.280001E0,9.9648004E2,9.920001E0,1.1200001E1,5.76E0,2.9888004E2,2.2400002E0,3.9360004E1,3.3280003E1,2.6048E2,2.3680002E1,5.9232E3,5.76E0,3.5200002E0,4.1600003E0,3.6800003E1,7.0400004E0,2.2400002E0,1.5360001E1,9.8112006E2,4.4800005E0,2.9440002E2,5.4400005E0,2.5504002E2,1.2160001E1,5.9110405E3,1.9200001E0,1.6000001E0,2.88E0,1.2800001E0,1.2800001E0,3.5520004E1,1.1200001E1,4.1600003E0,2.2400002E0,9.7888007E2,3.2000003E0,1.2800001E0,2.5600002E0,2.9184003E2,2.5600002E0,2.5248001E2,5.1200004E0,7.0400004E0,2.5600002E0,5.9084805E3],"tree_param":{"num_deleted":"0","num_feature":"2341","num_nodes":"91","size_leaf_vector":"1"}}]},"name":"gbtree"},"learner_model_param":{"base_score":"5E-1","boost_from_average":"1","num_class":"5","num_feature":"2341","num_target":"1"},"objective":{"name":"multi:softprob","softmax_multiclass_param":{"num_class":"5"}}},"version":[2,0,2]}0,0,0,0,0,0,0,0,0,0,0,0,0,0,0,0,0,0,0,0,0,0,0,0,0,0,0,0,0,0],"sum_hessian":[7.8460806E3,1.6710402E3,6.1750405E3,1.4358401E3,2.3520001E2,1.9264001E2,5.9824004E3,1.2800001E1,1.4230402E3,3.1680002E1,2.0352002E2,1.6960001E1,1.7568001E2,2.9280002E2,5.6896006E3,1.2160001E1,1.4108801E3,4.8E0,2.6880001E1,1.9200001E0,2.0160002E2,2.4000002E1,1.5168001E2,3.2960003E1,2.5984003E2,2.5920002E1,5.66368E3,9.920001E0,1.4009601E3,8.960001E0,1.9264001E2,1.2160001E1,1.1840001E1,3.8400002E0,1.4784001E2,1.0240001E1,2.4960002E2,2.0160002E1,5.6435205E3,1.0848001E2,1.2924801E3,3.2000003E0,5.76E0,7.0400004E0,1.856E2,2.2400002E0,1.6000001E0,1.6000001E0,1.4624E2,1.9200001E0,8.320001E0,4.7040005E1,2.0256001E2,7.3600006E0,5.63616E3,5.6000004E1,5.2480003E1,1.1840001E1,1.2806401E3,4.4800005E0,2.5600002E0,3.424E1,1.1200001E2,4.3840004E1,3.2000003E0,1.7920002E1,1.8464001E2,5.76E0,5.6304004E3,8.320001E0,4.7680004E1,9.280001E0,4.3200005E1,5.76E0,6.0800004E0,1.7920002E1,1.2627201E3,3.0720001E1,3.5200002E0,7.0400004E0,1.0880001E1,4.1920002E1,1.4272002E2,1.9200001E0,5.6284805E3],"tree_param":{"num_deleted":"0","num_feature":"2341","num_nodes":"85","size_leaf_vector":"1"}}]},"name":"gbtree"},"learner_model_param":{"base_score":"5E-1","boost_from_average":"1","num_class":"5","num_feature":"2341","num_target":"1"},"objective":{"name":"multi:softprob","softmax_multiclass_param":{"num_class":"5"}}},"version":[2,0,2]}