{"learner":{"attributes":{},"feature_names":[],"feature_types":[],"gradient_booster":{"model":{"gbtree_model_param":{"num_parallel_tree":"1","num_trees":"5"},"iteration_indptr":[0,5],"tree_info":[0,1,2,3,4],"trees":[{"base_weights":[9.656075E-1,2.2715478E0,4.8458517E-1,-6.1819762E-2,2.401789E0,-4.4778368E-1,9.7954756E-1,-5.286343E-1,2.440599E0,2.4385445E-1,-5.077636E-1,2.4848746E-1,8.8022196E-1,-6.0062397E-2,3.8461536E-2,-5.228758E-2,2.448487E0,1.4613596E0,-5.795099E-1,-3.700962E-2,1.1545337E0,-4.109589E-2,2.4514556E0,-2.0146519E-1,1.7447386E0,-6.206629E-1,3.195909E-3,2.044059E0,-3.6584666E-1,-2.791279E-1,1.3246838E0,8.77193E-3,2.4529345E0,9.589041E-2,-5.5555552E-2,-4.639175E-2,1.8665239E0,1.6438356E-1,-6.240747E-2,1.1904762E-1,-3.7717283E-2,-5.8679707E-2,2.4737945E-1,2.4123421E-1,-4.8297983E-1,-5.270655E-1,-1.499266E-1,-3.8694072E-1,1.3972677E0,6.1643835E-2,2.4544005E0,-4.3209877E-2,1.9702601E0,9.4771236E-2,-8.901061E-2,2.015504E-1,-5.0152427E-1,-5.6543833E-1,3.305785E-1,-1.6782773E-1,1.4035088E-1,1.983471E-1,-5.031446E-1,-2.6186576E-1,1.4507209E0,9.589041E-2,2.4553652E-1,-4.109589E-2,2.0663069E-1,4.3256994E-2,-1.684293E-2,1.983471E-1,-5.1884808E-2,-1.459854E-2,-5.8470428E-2,-3.508772E-2,6.741573E-2,4.5994066E-2,-2.1468926E-2,6.19469E-2,-5.5289507E-2,2.2317596E-1,-6.1538458E-2,2.4782608E-1,1.3708581E-1],"categories":[],"categories_nodes":[],"categories_segments":[],"categories_sizes":[],"default_left":[0,0,0,0,0,0,0,0,0,0,0,0,0,0,0,0,0,0,0,0,0,0,0,0,0,0,0,0,0,0,0,0,0,0,0,0,0,0,0,0,0,0,0,0,0,0,0,0,0,0,0,0,0,0,0,0,0,0,0,0,0,0,0,0,0,0,0,0,0,0,0,0,0,0,0,0,0,0,0,0,0,0,0,0,0],"id":0,"left_children":[1,3,5,-1,7,9,11,13,15,-1,17,-1,19,-1,-1,-1,21,23,25,27,29,-1,31,33,35,37,39,41,43,45,47,-1,49,-1,-1,-1,51,-1,-1,-1,53,-1,-1,-1,55,57,59,61,63,-1,65,-1,67,-1,69,-1,71,73,75,77,-1,-1,79,81,83,-1,-1,-1,-1,-1,-1,-1,-1,-1,-1,-1,-1,-1,-1,-1,-1,-1,-1,-1,-1],"loss_changes":[4.9283306E3,7.963789E2,2.6475498E3,0E0,2.3115625E2,3.457159E2,5.580908E2,2.0218906E0,4.7914062E1,0E0,2.7635468E2,0E0,8.8490576E2,0E0,0E0,0E0,1.789746E1,3.278955E1,4.5139343E1,5.554678E2,6.6076733E2,0E0,6.734375E0,5.0194855E0,1.6714325E1,1.4608765E1,6.124602E0,1.26673706E2,2.2923108E2,9.14801E0,3.0121777E2,0E0,3.834961E0,0E0,0E0,0E0,1.4214111E1,0E0,0E0,0E0,6.2489424E0,0E0,0E0,0E0,3.220775E1,3.421339E0,5.540249E0,2.833374E1,2.0630518E2,0E0,5.0878906E-1,0E0,1.3153671E1,0E0,4.912749E0,0E0,2.983612E1,6.7782784E-1,1.3697536E0,5.6729016E0,0E0,0E0,5.670641E0,6.6008156E1,1.8121338E2,0E0,0E0,0E0,0E0,0E0,0E0,0E0,0E0,0E0,0E0,0E0,0E0,0E0,0E0,0E0,0E0,0E0,0E0,0E0,0E0],"parents":[2147483647,0,0,1,1,2,2,4,4,5,5,6,6,7,7,8,8,10,10,12,12,16,16,17,17,18,18,19,19,20,20,22,22,23,23,24,24,25,25,26,26,27,27,28,28,29,29,30,30,32,32,36,36,40,40,44,44,45,45,46,46,47,47,48,48,50,50,52,52,54,54,56,56,57,57,58,58,59,59,62,62,63,63,64,64],"right_children":[2,4,6,-1,8,10,12,14,16,-1,18,-1,20,-1,-1,-1,22,24,26,28,30,-1,32,34,36,38,40,42,44,46,48,-1,50,-1,-1,-1,52,-1,-1,-1,54,-1,-1,-1,56,58,60,62,64,-1,66,-1,68,-1,70,-1,72,74,76,78,-1,-1,80,82,84,-1,-1,-1,-1,-1,-1,-1,-1,-1,-1,-1,-1,-1,-1,-1,-1,-1,-1,-1,-1],"split_conditions":[2.00001E0,2.00001E0,2.00001E0,-6.1819762E-2,2.00001E0,2.00001E0,2.00001E0,2.00001E0,2.00001E0,2.4385445E-1,2.00001E0,2.4848746E-1,2.00001E0,-6.0062397E-2,3.8461536E-2,-5.228758E-2,2.00001E0,2.00001E0,2.00001E0,2.00001E0,2.00001E0,-4.109589E-2,2.00001E0,2.00001E0,2.00001E0,2.00001E0,2.00001E0,2.00001E0,2.00001E0,2.00001E0,2.00001E0,8.77193E-3,2.00001E0,9.589041E-2,-5.5555552E-2,-4.639175E-2,2.00001E0,1.6438356E-1,-6.240747E-2,1.1904762E-1,2.00001E0,-5.8679707E-2,2.4737945E-1,2.4123421E-1,2.00001E0,2.00001E0,2.00001E0,2.00001E0,2.00001E0,6.1643835E-2,2.00001E0,-4.3209877E-2,2.00001E0,9.4771236E-2,2.00001E0,2.015504E-1,2.00001E0,2.00001E0,2.00001E0,2.00001E0,1.4035088E-1,1.983471E-1,2.00001E0,2.00001E0,2.00001E0,9.589041E-2,2.4553652E-1,-4.109589E-2,2.0663069E-1,4.3256994E-2,-1.684293E-2,1.983471E-1,-5.1884808E-2,-1.459854E-2,-5.8470428E-2,-3.508772E-2,6.741573E-2,4.5994066E-2,-2.1468926E-2,6.19469E-2,-5.5289507E-2,2.2317596E-1,-6.1538458E-2,2.4782608E-1,1.3708581E-1],"split_indices":[18,1247,1082,0,1015,1014,38,85,953,0,433,0,403,0,0,0,502,490,379,337,704,0,1503,110,827,232,822,1066,1022,893,582,0,1476,0,0,0,851,0,0,0,825,0,0,0,152,2111,48,2091,1186,0,1466,0,1298,0,823,0,945,683,2223,691,0,0,893,1246,564,0,0,0,0,0,0,0,0,0,0,0,0,0,0,0,0,0,0,0,0],"split_type":[0,0,0,0,0,0,0,0,0,0,0,0,0,0,0,0,0,0,0,0,0,0,0,0,0,0,0,0,0,0,0,0,0,0,0,0,0,0,0,0,0,0,0,0,0,0,0,0,0,0,0,0,0,0,0,0,0,0,0,0,0,0,0,0,0,0,0,0,0,0,0,0,0,0,0,0,0,0,0,0,0,0,0,0,0],"sum_hessian":[7.8460806E3,2.11104E3,5.7350405E3,9.0880005E1,2.0201602E3,1.9888002E3,3.7462402E3,2.6240002E1,1.9939202E3,3.9680004E1,1.9491201E3,2.3040001E2,3.5158403E3,2.4640001E1,1.6000001E0,5.1200004E0,1.9888002E3,6.7840004E1,1.8812802E3,8.0960004E2,2.7062402E3,1.9200001E0,1.9868801E3,9.920001E0,5.7920006E1,1.7571201E3,1.2416001E2,1.0976001E2,6.9984E2,2.8704E2,2.4192002E3,1.2800001E0,1.9856001E3,1.9200001E0,8.000001E0,2.88E0,5.5040005E1,1.9200001E0,1.7552001E3,3.2000003E0,1.2096001E2,1.5360001E1,9.440001E1,2.7520002E1,6.7232007E2,9.728001E1,1.8976001E2,9.8240005E1,2.3209602E3,1.9200001E0,1.9836802E3,2.2400002E0,5.2800003E1,5.1200004E0,1.1584001E2,4.1600003E0,6.6816003E2,9.344001E1,3.8400002E0,1.8848001E2,1.2800001E0,3.8400002E0,9.440001E1,7.232001E1,2.2486401E3,1.9200001E0,1.9817601E3,1.9200001E0,5.0880005E1,1.4720001E1,1.0112001E2,3.8400002E0,6.6432007E2,4.4800005E0,8.896001E1,1.2800001E0,2.5600002E0,1.24800005E1,1.7600002E2,3.5200002E0,9.0880005E1,8.320001E0,6.400001E1,1.6000002E2,2.0886401E3],"tree_param":{"num_deleted":"0","num_feature":"2341","num_nodes":"85","size_leaf_vector":"1"}},{"base_weights":[-3.9031076E-1,2.4718086E-1,-4.2297083E-1,2.4024959E-1,-4.322823E-1,1.9628645E-1,-4.6442604E-1,2.3556581E-1,9.204835E-2,-6.2223214E-1,-3.2295454E-1,-6.089363E-1,3.6388758E-1,1.6666667E-1,-6.2482007E-2,2.3946035E-1,-3.3957237E-1,-6.1874248E-2,8.77193E-3,-5.643044E-1,7.435786E-1,2.1657753E-1,-3.541317E-1,-5.7661504E-2,8.77193E-3,1.1155957E0,-6.4061494E-3,5.534709E-1,-3.7995777E-1,-5.1246535E-2,1.3183628E-1,9.4890505E-2,-9.661836E-3,-9.608278E-3,1.2004488E-1,9.4890505E-2,-3.97644E-2],"categories":[],"categories_nodes":[],"categories_segments":[],"categories_sizes":[],"default_left":[0,0,0,0,0,0,0,0,0,0,0,0,0,0,0,0,0,0,0,0,0,0,0,0,0,0,0,0,0,0,0,0,0,0,0,0,0],"id":1,"left_children":[1,-1,3,-1,5,7,9,-1,11,13,15,17,19,-1,-1,-1,21,-1,-1,23,25,-1,27,-1,-1,29,31,33,35,-1,-1,-1,-1,-1,-1,-1,-1],"loss_changes":[7.345669E2,0E0,2.051825E2,0E0,1.5636853E2,8.4641655E1,1.6408398E2,0E0,6.895101E1,2.1640137E1,1.761366E2,7.453499E-1,9.223368E1,0E0,0E0,0E0,1.4154892E2,0E0,0E0,6.622219E-1,5.1712753E1,0E0,9.017505E1,0E0,0E0,4.157054E1,5.4728065E0,4.4913662E1,8.8101074E1,0E0,0E0,0E0,0E0,0E0,0E0,0E0,0E0],"parents":[2147483647,0,0,2,2,4,4,5,5,6,6,8,8,9,9,10,10,11,11,12,12,16,16,19,19,20,20,22,22,25,25,26,26,27,27,28,28],"right_children":[2,-1,4,-1,6,8,10,-1,12,14,16,18,20,-1,-1,-1,22,-1,-1,24,26,-1,28,-1,-1,30,32,34,36,-1,-1,-1,-1,-1,-1,-1,-1],"split_conditions":[2.00001E0,2.4718086E-1,2.00001E0,2.4024959E-1,2.00001E0,2.00001E0,2.00001E0,2.3556581E-1,2.00001E0,2.00001E0,2.00001E0,2.00001E0,2.00001E0,1.6666667E-1,-6.2482007E-2,2.3946035E-1,2.00001E0,-6.1874248E-2,8.77193E-3,2.00001E0,2.00001E0,2.1657753E-1,2.00001E0,-5.7661504E-2,8.77193E-3,2.00001E0,2.00001E0,2.00001E0,2.00001E0,-5.1246535E-2,1.3183628E-1,9.4890505E-2,-9.661836E-3,-9.608278E-3,1.2004488E-1,9.4890505E-2,-3.97644E-2],"split_indices":[327,0,289,0,45,196,372,0,819,1296,502,466,1101,0,0,0,1138,0,0,827,287,0,1253,0,0,834,820,640,318,0,0,0,0,0,0,0,0],"split_type":[0,0,0,0,0,0,0,0,0,0,0,0,0,0,0,0,0,0,0,0,0,0,0,0,0,0,0,0,0,0,0,0,0,0,0,0,0],"sum_hessian":[7.8460806E3,8.768001E1,7.7584004E3,2.4640001E1,7.7337607E3,3.7600003E2,7.3577607E3,1.6320002E1,3.5968002E2,3.4764802E3,3.8812803E3,1.0016E2,2.5952002E2,3.2000003E0,3.4732803E3,2.2720001E1,3.8585603E3,9.8880005E1,1.2800001E0,7.5200005E1,1.8432E2,2.1440002E1,3.8371204E3,7.3920006E1,1.2800001E0,1.22880005E2,6.1440002E1,1.05600006E2,3.7315203E3,1.3440001E1,1.0944001E2,4.4800005E0,5.6960003E1,5.3120003E1,5.2480003E1,4.8320004E1,3.6832002E3],"tree_param":{"num_deleted":"0","num_feature":"2341","num_nodes":"37","size_leaf_vector":"1"}},{"base_weights":[6.1067298E-2,2.4545116E0,-1.1530232E-1,-5.405405E-2,2.4915445E0,7.6650715E-1,-4.2824098E-1,5.2631576E-2,2.4952911E-1,4.1307175E-1,1.5506222E0,1.9051472E0,-4.8283708E-1,2.1329877E0,3.1735894E-1,-4.5871556E-2,1.6242592E0,-5.9865087E-2,2.475208E-1,1.2497287E0,-5.455002E-1,-4.9586777E-2,2.2943325E0,2.0510397E0,2.873414E-1,6.124924E-1,1.7522206E0,-5.9792023E-2,1.5048064E0,1.5865307E-1,-5.8130795E-1,1.521739E-1,2.4526873E-1,7.692307E-2,2.1165644E-1,3.2921737E-1,-3.7317467E-1,-2.9850745E-1,7.2640866E-1,-4.1533545E-2,1.8032655E0,-5.1724136E-2,1.569723E0,2.1832356E0,-2.4608893E-2,1.7391305E-1,-5.8781636E-1,1.062103E0,2.9129377E-1,4.7619045E-1,-4.183154E-1,8.77193E-3,-3.8461536E-1,-1.459854E-2,8.008817E-1,-5.502392E-2,1.839742E0,-4.9586777E-2,1.6245768E0,-3.508772E-2,2.3700623E-1,-6.1795216E-2,3.5173005E-1,1.6642547E-1,-6.008625E-1,-4.7619045E-2,1.1630515E-1,1.6883115E-1,2.7128225E-2,8.77193E-3,6.1643835E-2,2.189781E-2,-4.646952E-2,8.77193E-3,-5.109489E-2,-2.3809522E-2,8.704137E-2,2.2303621E-1,1.7372924E-1,-3.1007752E-2,1.6804923E-1,7.285429E-2,-5.8505405E-2,-5.0131924E-2,9.521332E-2,1.85567E-1,-6.0274422E-2],"categories":[],"categories_nodes":[],"categories_segments":[],"categories_sizes":[],"default_left":[0,0,0,0,0,0,0,0,0,0,0,0,0,0,0,0,0,0,0,0,0,0,0,0,0,0,0,0,0,0,0,0,0,0,0,0,0,0,0,0,0,0,0,0,0,0,0,0,0,0,0,0,0,0,0,0,0,0,0,0,0,0,0,0,0,0,0,0,0,0,0,0,0,0,0,0,0,0,0,0,0,0,0,0,0,0,0],"id":2,"left_children":[1,3,5,-1,7,9,11,-1,-1,13,15,17,19,21,23,-1,25,-1,-1,27,29,-1,31,33,35,37,39,-1,41,43,45,-1,-1,-1,-1,47,49,51,53,-1,55,-1,57,59,61,-1,63,65,67,69,71,-1,73,-1,75,-1,77,-1,79,-1,-1,-1,81,83,85,-1,-1,-1,-1,-1,-1,-1,-1,-1,-1,-1,-1,-1,-1,-1,-1,-1,-1,-1,-1,-1,-1],"loss_changes":[3.3127776E3,6.1085938E1,2.017396E3,0E0,2.6052246E0,5.3004895E2,6.882812E2,0E0,0E0,2.1683614E2,8.8723145E1,1.7784116E2,5.731614E2,3.0607788E1,6.460953E1,0E0,7.321509E1,0E0,0E0,8.778754E1,1.2842285E2,0E0,4.298279E0,1.4910126E-1,3.421849E1,7.0620155E0,5.704834E1,0E0,2.2113556E1,9.172758E1,7.4172E1,0E0,0E0,0E0,0E0,3.1923485E1,3.0348978E0,3.0112606E-1,3.9449387E0,0E0,4.3706177E1,0E0,1.8648895E1,1.054657E1,5.1031086E1,0E0,4.7634277E1,9.355583E0,3.0407043E1,1.74752E-1,2.1932478E0,0E0,4.482007E-1,0E0,4.140106E0,0E0,1.5732788E1,0E0,1.7141418E1,0E0,0E0,0E0,4.98028E1,4.398148E1,2.3069702E1,0E0,0E0,0E0,0E0,0E0,0E0,0E0,0E0,0E0,0E0,0E0,0E0,0E0,0E0,0E0,0E0,0E0,0E0,0E0,0E0,0E0,0E0],"parents":[2147483647,0,0,1,1,2,2,4,4,5,5,6,6,9,9,10,10,11,11,12,12,13,13,14,14,16,16,19,19,20,20,22,22,23,23,24,24,25,25,26,26,28,28,29,29,30,30,35,35,36,36,37,37,38,38,40,40,42,42,43,43,44,44,46,46,47,47,48,48,49,49,50,50,52,52,54,54,56,56,58,58,62,62,63,63,64,64],"right_children":[2,4,6,-1,8,10,12,-1,-1,14,16,18,20,22,24,-1,26,-1,-1,28,30,-1,32,34,36,38,40,-1,42,44,46,-1,-1,-1,-1,48,50,52,54,-1,56,-1,58,60,62,-1,64,66,68,70,72,-1,74,-1,76,-1,78,-1,80,-1,-1,-1,82,84,86,-1,-1,-1,-1,-1,-1,-1,-1,-1,-1,-1,-1,-1,-1,-1,-1,-1,-1,-1,-1,-1,-1],"split_conditions":[2.00001E0,2.00001E0,2.00001E0,-5.405405E-2,2.00001E0,2.00001E0,2.00001E0,5.2631576E-2,2.4952911E-1,2.00001E0,2.00001E0,2.00001E0,2.00001E0,2.00001E0,2.00001E0,-4.5871556E-2,2.00001E0,-5.9865087E-2,2.475208E-1,2.00001E0,2.00001E0,-4.9586777E-2,2.00001E0,2.00001E0,2.00001E0,2.00001E0,2.00001E0,-5.9792023E-2,2.00001E0,2.00001E0,2.00001E0,1.521739E-1,2.4526873E-1,7.692307E-2,2.1165644E-1,2.00001E0,2.00001E0,2.00001E0,2.00001E0,-4.1533545E-2,2.00001E0,-5.1724136E-2,2.00001E0,2.00001E0,2.00001E0,1.7391305E-1,2.00001E0,2.00001E0,2.00001E0,2.00001E0,2.00001E0,8.77193E-3,2.00001E0,-1.459854E-2,2.00001E0,-5.502392E-2,2.00001E0,-4.9586777E-2,2.00001E0,-3.508772E-2,2.3700623E-1,-6.1795216E-2,2.00001E0,2.00001E0,2.00001E0,-4.7619045E-2,1.1630515E-1,1.6883115E-1,2.7128225E-2,8.77193E-3,6.1643835E-2,2.189781E-2,-4.646952E-2,8.77193E-3,-5.109489E-2,-2.3809522E-2,8.704137E-2,2.2303621E-1,1.7372924E-1,-3.1007752E-2,1.6804923E-1,7.285429E-2,-5.8505405E-2,-5.0131924E-2,9.521332E-2,1.85567E-1,-6.0274422E-2],"split_indices":[953,64,1725,0,2338,702,1146,0,0,910,1138,362,1616,1246,2110,0,1204,0,0,134,22,0,2191,415,48,892,836,0,901,512,1084,0,0,0,0,721,896,32,427,0,430,0,2174,823,327,0,133,2145,2124,29,42,0,349,0,694,0,893,0,1815,0,0,0,973,568,431,0,0,0,0,0,0,0,0,0,0,0,0,0,0,0,0,0,0,0,0,0,0],"split_type":[0,0,0,0,0,0,0,0,0,0,0,0,0,0,0,0,0,0,0,0,0,0,0,0,0,0,0,0,0,0,0,0,0,0,0,0,0,0,0,0,0,0,0,0,0,0,0,0,0,0,0,0,0,0,0,0,0,0,0,0,0,0,0,0,0,0,0,0,0,0,0,0,0,0,0,0,0,0,0,0,0,0,0,0,0,0,0],"sum_hessian":[7.8460806E3,5.3760004E2,7.3084805E3,6.4000006E0,5.312E2,1.9139202E3,5.3945605E3,1.2800001E0,5.2992004E2,1.3203201E3,5.9360004E2,1.22560005E2,5.2720005E3,6.848E1,1.2518401E3,2.0800001E1,5.7280005E2,2.2720001E1,9.9840004E1,1.8336002E2,5.08864E3,3.8400002E0,6.464001E1,2.0160002E1,1.23168E3,6.496001E1,5.0784003E2,2.2080002E1,1.6128001E2,2.4608002E2,4.8425605E3,1.2800001E1,5.1840004E1,1.6000001E0,1.8560001E1,1.1587201E3,7.296001E1,7.0400004E0,5.7920006E1,1.152E1,4.9632004E2,4.8E0,1.5648001E2,1.952E1,2.2656001E2,1.2800001E1,4.8297603E3,5.5680004E1,1.10304E3,3.2000003E0,6.976E1,1.2800001E0,5.76E0,4.4800005E0,5.3440002E1,7.3600006E0,4.8896002E2,3.8400002E0,1.5264001E2,1.2800001E0,1.8240002E1,8.768001E1,1.3888E2,8.1920006E1,4.7478403E3,3.2000003E0,5.2480003E1,1.4400001E1,1.0886401E3,1.2800001E0,1.9200001E0,4.4800005E0,6.528001E1,1.2800001E0,4.4800005E0,3.2000003E0,5.024E1,9.728001E1,3.9168002E2,4.1600003E0,1.4848001E2,9.9200005E1,3.9680004E1,4.4480003E1,3.7440002E1,2.88E0,4.7449604E3],"tree_param":{"num_deleted":"0","num_feature":"2341","num_nodes":"87","size_leaf_vector":"1"}},{"base_weights":[-6.2428313E-1,1.5384614E-1,-6.249203E-2],"categories":[],"categories_nodes":[],"categories_segments":[],"categories_sizes":[],"default_left":[0,0,0],"id":3,"left_children":[1,-1,-1],"loss_changes":[1.1774902E1,0E0,0E0],"parents":[2147483647,0,0],"right_children":[2,-1,-1],"split_conditions":[2.00001E0,1.5384614E-1,-6.249203E-2],"split_indices":[16,0,0],"split_type":[0,0,0],"sum_hessian":[7.8460806E3,1.6000001E0,7.8444805E3],"tree_param":{"num_deleted":"0","num_feature":"2341","num_nodes":"3","size_leaf_vector":"1"}},{"base_weights":[-1.2080926E-2,2.0857253E0,-3.670244E-1,2.1347125E0,-5.954631E-2,1.7706349E0,-4.8708346E-1,1.3216265E0,2.219842E0,2.4654011E-1,1.4902723E0,2.348912E-1,-5.0932527E-1,-2.2004889E-1,1.5790607E0,-2.5559103E-1,2.2487059E0,2.4015747E-1,1.1001099E0,1.9855595E0,-5.3134733E-1,1.11111104E-1,-5.502392E-2,2.2540631E0,8.7510616E-1,-5.405405E-2,1.3071895E-1,4.4698542E-1,2.281831E0,7.442686E-1,1.8295994E0,-2.8497407E-1,2.304848E-1,4.7550824E-1,-5.80775E-1,-1.1299434E-2,6.1643835E-2,5.2631576E-2,2.291117E-1,-4.6184737E-2,1.201469E0,-4.7619045E-2,9.589041E-2,-0E0,1.7768595E-1,-5.109489E-2,2.2951996E0,2.2576177E-1,5.396595E-1,5.839416E-2,1.9213812E0,-4.7619045E-2,-4.4247787E-3,-6.0587514E-2,6.0884196E-1,2.3294346E-1,-5.907282E-1,-4.639175E-2,1.3507377E0,3.4136546E-1,2.3129842E0,2.1107267E-1,3.524229E-1,2.0922647E-1,1.1821085E0,1.983471E-1,5.8065516E-1,1.85567E-1,-5.922271E-1,-3.508772E-2,1.425206E-1,1.7283951E-1,-2.8497407E-2,-2.0618556E-2,2.3207381E-1,1.7601246E-1,1.4311676E-2,8.77193E-3,1.2989323E-1,8.31643E-2,4.223944E-2,8.4070794E-2,-5.9321858E-2],"categories":[],"categories_nodes":[],"categories_segments":[],"categories_sizes":[],"default_left":[0,0,0,0,0,0,0,0,0,0,0,0,0,0,0,0,0,0,0,0,0,0,0,0,0,0,0,0,0,0,0,0,0,0,0,0,0,0,0,0,0,0,0,0,0,0,0,0,0,0,0,0,0,0,0,0,0,0,0,0,0,0,0,0,0,0,0,0,0,0,0,0,0,0,0,0,0,0,0,0,0,0,0],"id":4,"left_children":[1,3,5,7,-1,9,11,13,15,-1,17,-1,19,21,23,25,27,-1,29,31,33,35,-1,37,39,-1,41,43,45,47,49,51,-1,53,55,-1,-1,-1,-1,-1,57,-1,-1,-1,-1,-1,59,-1,61,-1,63,-1,-1,-1,65,-1,67,-1,69,71,73,-1,75,-1,77,-1,79,-1,81,-1,-1,-1,-1,-1,-1,-1,-1,-1,-1,-1,-1,-1,-1],"loss_changes":[5.8437217E3,1.504414E2,1.7235585E3,7.4282715E1,0E0,6.589575E1,4.0213135E2,4.328987E1,7.262207E1,0E0,8.87359E1,0E0,3.4760767E2,1.8500354E0,4.2142334E1,1.4488459E0,5.847412E1,0E0,4.5830414E1,4.0819366E1,3.1147437E2,1.0888734E0,0E0,1.7877045E0,2.1097404E1,0E0,3.5327373E0,1.1436916E1,3.770996E1,3.7140472E1,5.614273E0,3.3428746E-1,0E0,4.2638115E1,1.7404175E2,0E0,0E0,0E0,0E0,0E0,1.0102882E1,0E0,0E0,0E0,0E0,0E0,3.3058594E1,0E0,3.1743309E1,0E0,4.4040833E0,0E0,0E0,0E0,8.979691E0,0E0,2.2885498E1,0E0,4.965561E0,9.145311E0,1.9331543E1,0E0,2.91768E1,0E0,1.4867496E0,0E0,9.882576E0,0E0,8.936035E0,0E0,0E0,0E0,0E0,0E0,0E0,0E0,0E0,0E0,0E0,0E0,0E0,0E0,0E0],"parents":[2147483647,0,0,1,1,2,2,3,3,5,5,6,6,7,7,8,8,10,10,12,12,13,13,14,14,15,15,16,16,18,18,19,19,20,20,21,21,23,23,24,24,26,26,27,27,28,28,29,29,30,30,31,31,33,33,34,34,40,40,46,46,48,48,50,50,54,54,56,56,58,58,59,59,60,60,62,62,64,64,66,66,68,68],"right_children":[2,4,6,8,-1,10,12,14,16,-1,18,-1,20,22,24,26,28,-1,30,32,34,36,-1,38,40,-1,42,44,46,48,50,52,-1,54,56,-1,-1,-1,-1,-1,58,-1,-1,-1,-1,-1,60,-1,62,-1,64,-1,-1,-1,66,-1,68,-1,70,72,74,-1,76,-1,78,-1,80,-1,82,-1,-1,-1,-1,-1,-1,-1,-1,-1,-1,-1,-1,-1,-1],"split_conditions":[2.00001E0,2.00001E0,2.00001E0,2.00001E0,-5.954631E-2,2.00001E0,2.00001E0,2.00001E0,2.00001E0,2.4654011E-1,2.00001E0,2.348912E-1,2.00001E0,2.00001E0,2.00001E0,2.00001E0,2.00001E0,2.4015747E-1,2.00001E0,2.00001E0,2.00001E0,2.00001E0,-5.502392E-2,2.00001E0,2.00001E0,-5.405405E-2,2.00001E0,2.00001E0,2.00001E0,2.00001E0,2.00001E0,2.00001E0,2.304848E-1,2.00001E0,2.00001E0,-1.1299434E-2,6.1643835E-2,5.2631576E-2,2.291117E-1,-4.6184737E-2,2.00001E0,-4.7619045E-2,9.589041E-2,-0E0,1.7768595E-1,-5.109489E-2,2.00001E0,2.2576177E-1,2.00001E0,5.839416E-2,2.00001E0,-4.7619045E-2,-4.4247787E-3,-6.0587514E-2,2.00001E0,2.3294346E-1,2.00001E0,-4.639175E-2,2.00001E0,2.00001E0,2.00001E0,2.1107267E-1,2.00001E0,2.0922647E-1,2.00001E0,1.983471E-1,2.00001E0,1.85567E-1,2.00001E0,-3.508772E-2,1.425206E-1,1.7283951E-1,-2.8497407E-2,-2.0618556E-2,2.3207381E-1,1.7601246E-1,1.4311676E-2,8.77193E-3,1.2989323E-1,8.31643E-2,4.223944E-2,8.4070794E-2,-5.9321858E-2],"split_indices":[1336,455,97,1253,0,819,247,894,1722,0,1101,0,129,3,640,906,1613,0,287,894,547,2022,0,893,893,0,905,894,1863,834,820,1021,0,1061,492,0,0,0,0,0,905,0,0,0,0,0,1606,0,825,0,569,0,0,0,1060,0,195,0,891,893,1692,0,830,0,575,0,1071,0,2131,0,0,0,0,0,0,0,0,0,0,0,0,0,0],"split_type":[0,0,0,0,0,0,0,0,0,0,0,0,0,0,0,0,0,0,0,0,0,0,0,0,0,0,0,0,0,0,0,0,0,0,0,0,0,0,0,0,0,0,0,0,0,0,0,0,0,0,0,0,0,0,0,0,0,0,0,0,0,0,0,0,0,0,0,0,0,0,0,0,0,0,0,0,0,0,0,0,0,0,0],"sum_hessian":[7.8460806E3,1.1347201E3,6.7113604E3,1.11456E3,2.0160002E1,3.5616003E2,6.3552007E3,1.07200005E2,1.00736005E3,1.0016E2,2.5600003E2,4.8640003E1,6.3065605E3,1.5360001E1,9.1840004E1,1.152E1,9.958401E2,7.5200005E1,1.8080002E2,5.4400005E1,6.2521606E3,8.000001E0,7.3600006E0,4.5760002E1,4.608E1,6.4000006E0,5.1200004E0,1.8240002E1,9.776001E2,1.22880005E2,5.7920006E1,6.7200003E0,4.7680004E1,2.9216003E2,5.9600005E3,6.0800004E0,1.9200001E0,1.2800001E0,4.4480003E1,8.960001E0,3.7120003E1,3.2000003E0,1.9200001E0,1.4400001E1,3.8400002E0,4.4800005E0,9.7312006E2,1.3440001E1,1.0944001E2,4.4800005E0,5.3440002E1,3.2000003E0,3.5200002E0,3.1680002E1,2.6048E2,1.952E1,5.9404805E3,2.88E0,3.424E1,8.960001E0,9.641601E2,1.056E1,9.8880005E1,4.1920002E1,1.152E1,3.8400002E0,2.5664E2,2.88E0,5.9376006E3,1.2800001E0,3.2960003E1,2.2400002E0,6.7200003E0,2.88E0,9.612801E2,1.1840001E1,8.704001E1,1.2800001E0,1.0240001E1,9.7600006E1,1.5904001E2,3.5200002E0,5.9340806E3],"tree_param":{"num_deleted":"0","num_feature":"2341","num_nodes":"83","size_leaf_vector":"1"}}]},"name":"gbtree"},"learner_model_param":{"base_score":"5E-1","boost_from_average":"1","num_class":"5","num_feature":"2341","num_target":"1"},"objective":{"name":"multi:softprob","softmax_multiclass_param":{"num_class":"5"}}},"version":[2,0,2]}