{"learner":{"attributes":{},"feature_names":[],"feature_types":[],"gradient_booster":{"model":{"gbtree_model_param":{"num_parallel_tree":"1","num_trees":"5"},"iteration_indptr":[0,5],"tree_info":[0,1,2,3,4],"trees":[{"base_weights":[7.472405E-1,-4.9580014E-1,9.6837294E-1,1.6115525E-1,-5.1868767E-1,1.5997368E0,6.7983115E-1,-1.5314975E-1,-6.068265E-1,-5.752408E-2,1.6134588E0,-4.9687335E-1,8.238308E-1,7.1977973E-1,-1.9047919E-1,3.5220157E-2,-6.086686E-2,-5.2574046E-2,1.6171225E0,1.626444E-1,-5.691725E-1,-6.0680598E-2,9.404807E-1,-3.312788E-2,8.84403E-1,8.744721E-2,-2.177183E-1,-3.582056E-4,1.6181747E0,-6.071345E-2,6.923808E-1,-2.6733425E-1,1.0237532E0,-7.527803E-3,1.1386915E-1,8.730898E-1,-2.4281272E-1,4.071916E-3,1.6190156E0,4.697101E-2,1.1188084E-1,-5.0176775E-1,-1.5177524E-1,-2.7325027E-2,1.1047332E0,1.2564062E-1,4.461309E-2,7.709381E-2,-2.6238728E-1,4.247193E-2,1.620031E0,-5.427771E-1,3.3897758E-1,4.9175808E-1,-1.9988514E-1,1.6339551E-1,-5.2124476E-1,-4.1071975E-1,1.1535654E0,3.6711812E-2,-2.8842116E-2,7.056898E-2,1.6212384E-1,-9.505378E-3,-5.6389254E-2,-3.4250256E-2,6.723939E-2,1.315054E-1,6.321809E-3,6.567199E-2,-2.2917796E-2,2.8507117E-2,-5.828317E-2,1.4988585E-1,-5.0691973E-2,8.745422E-2,1.3851832E-1],"categories":[],"categories_nodes":[],"categories_segments":[],"categories_sizes":[],"default_left":[0,0,0,0,0,0,0,0,0,0,0,0,0,0,0,0,0,0,0,0,0,0,0,0,0,0,0,0,0,0,0,0,0,0,0,0,0,0,0,0,0,0,0,0,0,0,0,0,0,0,0,0,0,0,0,0,0,0,0,0,0,0,0,0,0,0,0,0,0,0,0,0,0,0,0,0,0],"id":0,"left_children":[1,3,5,-1,7,9,11,13,15,-1,17,19,21,23,25,-1,-1,-1,27,-1,29,-1,31,-1,33,-1,35,-1,37,-1,39,41,43,-1,-1,45,47,-1,49,-1,-1,51,53,55,57,-1,-1,-1,59,-1,61,63,65,67,69,-1,71,73,75,-1,-1,-1,-1,-1,-1,-1,-1,-1,-1,-1,-1,-1,-1,-1,-1,-1,-1],"loss_changes":[2.4244282E3,6.510434E1,1.3628242E3,0E0,4.2400177E1,7.099219E1,8.713933E2,8.530376E0,2.091156E0,0E0,1.9136719E1,8.70585E1,7.6492163E2,2.1568933E0,7.378682E0,0E0,0E0,0E0,3.9780273E0,0E0,2.6441513E1,0E0,4.262444E2,0E0,2.4250517E0,0E0,6.847851E0,0E0,3.0219727E0,0E0,1.0259662E0,7.345579E0,3.3728467E2,0E0,0E0,3.672967E-1,4.9201756E0,0E0,2.133789E0,0E0,0E0,3.2877502E0,5.8239937E0,2.3422235E2,2.727212E2,0E0,0E0,0E0,3.9407005E0,0E0,1.4213867E0,7.6148987E-1,1.3214593E0,4.5574355E0,4.486057E0,0E0,1.1090477E1,2.1992117E1,2.291372E2,0E0,0E0,0E0,0E0,0E0,0E0,0E0,0E0,0E0,0E0,0E0,0E0,0E0,0E0,0E0,0E0,0E0,0E0],"parents":[2147483647,0,0,1,1,2,2,4,4,5,5,6,6,7,7,8,8,10,10,11,11,12,12,13,13,14,14,18,18,20,20,22,22,24,24,26,26,28,28,30,30,31,31,32,32,35,35,36,36,38,38,41,41,42,42,43,43,44,44,48,48,50,50,51,51,52,52,53,53,54,54,56,56,57,57,58,58],"right_children":[2,4,6,-1,8,10,12,14,16,-1,18,20,22,24,26,-1,-1,-1,28,-1,30,-1,32,-1,34,-1,36,-1,38,-1,40,42,44,-1,-1,46,48,-1,50,-1,-1,52,54,56,58,-1,-1,-1,60,-1,62,64,66,68,70,-1,72,74,76,-1,-1,-1,-1,-1,-1,-1,-1,-1,-1,-1,-1,-1,-1,-1,-1,-1,-1],"split_conditions":[2.00001E0,2.00001E0,2.00001E0,1.6115525E-1,2.00001E0,2.00001E0,2.00001E0,2.00001E0,2.00001E0,-5.752408E-2,2.00001E0,2.00001E0,2.00001E0,2.00001E0,2.00001E0,3.5220157E-2,-6.086686E-2,-5.2574046E-2,2.00001E0,1.626444E-1,2.00001E0,-6.0680598E-2,2.00001E0,-3.312788E-2,2.00001E0,8.744721E-2,2.00001E0,-3.582056E-4,2.00001E0,-6.071345E-2,2.00001E0,2.00001E0,2.00001E0,-7.527803E-3,1.1386915E-1,2.00001E0,2.00001E0,4.071916E-3,2.00001E0,4.697101E-2,1.1188084E-1,2.00001E0,2.00001E0,2.00001E0,2.00001E0,1.2564062E-1,4.461309E-2,7.709381E-2,2.00001E0,4.247193E-2,2.00001E0,2.00001E0,2.00001E0,2.00001E0,2.00001E0,1.6339551E-1,2.00001E0,2.00001E0,2.00001E0,3.6711812E-2,-2.8842116E-2,7.056898E-2,1.6212384E-1,-9.505378E-3,-5.6389254E-2,-3.4250256E-2,6.723939E-2,1.315054E-1,6.321809E-3,6.567199E-2,-2.2917796E-2,2.8507117E-2,-5.828317E-2,1.4988585E-1,-5.0691973E-2,8.745422E-2,1.3851832E-1],"split_indices":[377,462,227,0,133,433,19,822,18,0,21,282,881,616,1972,0,0,0,1503,0,63,0,704,0,1728,0,1815,0,1505,0,150,893,1066,0,0,819,1973,0,1476,0,0,2111,691,100,582,0,0,0,823,0,2205,683,2223,897,2135,0,328,901,1247,0,0,0,0,0,0,0,0,0,0,0,0,0,0,0,0,0,0],"split_type":[0,0,0,0,0,0,0,0,0,0,0,0,0,0,0,0,0,0,0,0,0,0,0,0,0,0,0,0,0,0,0,0,0,0,0,0,0,0,0,0,0,0,0,0,0,0,0,0,0,0,0,0,0,0,0,0,0,0,0,0,0,0,0,0,0,0,0,0,0,0,0,0,0,0,0,0,0],"sum_hessian":[8.817312E3,1.3314816E3,7.48583E3,1.3559829E1,1.3179218E3,2.3466143E3,5.139216E3,2.5657327E2,1.0613485E3,1.4455445E1,2.332159E3,5.600742E2,4.5791416E3,9.772257E0,2.4680101E2,1.6700885E0,1.0596783E3,3.7438807E0,2.328415E3,1.7734764E1,5.423394E2,3.4490466E2,4.234237E3,1.1862354E0,8.586021E0,5.3794723E0,2.4142154E2,1.5089468E0,2.326906E3,5.2699994E2,1.5339481E1,2.7295685E2,3.9612798E3,1.9459615E0,6.6400604E0,4.6691704E0,2.3675237E2,1.2661401E0,2.32564E3,1.1457919E1,3.8815618E0,8.902023E1,1.8393663E2,2.8341138E2,3.6778684E3,1.4366678E0,3.2325025E0,3.7577314E0,2.3299464E2,2.33183E0,2.323308E3,8.5217926E1,3.8023026E0,1.2152979E1,1.7178365E2,6.442207E1,2.189893E2,1.1458059E2,3.5632878E3,8.732766E0,2.2426187E2,3.835844E0,2.3194722E3,4.085791E0,8.113214E1,1.2401888E0,2.5621138E0,3.452149E0,8.70083E0,4.971903E0,1.6681174E2,1.5282107E1,2.037072E2,4.7961397E0,1.0978445E2,1.6184106E3,1.9448772E3],"tree_param":{"num_deleted":"0","num_feature":"2341","num_nodes":"77","size_leaf_vector":"1"}},{"base_weights":[-3.6761874E-1,1.933575E-1,-4.0067527E-1,1.897921E-1,-4.10144E-1,1.807104E-1,-4.4273293E-1,-5.418071E-1,4.336338E-1,-6.055454E-1,-3.039223E-1,1.3738348E-1,-6.005296E-1,-5.5520594E-1,7.76341E-1,1.517176E-1,-6.0833562E-2,1.8917246E-1,-3.2039827E-1,-6.107333E-2,1.0889254E-2,-5.676973E-2,7.6717413E-3,1.23933535E-2,1.0657527E0,1.7284822E0,-3.3486238E-1,9.564539E-2,-8.2285844E-2,-4.6753224E-2,1.229942E0,1.8364534E-1,-3.538431E-2,5.681139E-1,-3.6138102E-1,-2.6028428E-2,5.262197E-2,-1.5272572E-2,1.3697551E-1,-8.083432E-3,1.200876E-1,2.132995E-1,-3.7005648E-2],"categories":[],"categories_nodes":[],"categories_segments":[],"categories_sizes":[],"default_left":[0,0,0,0,0,0,0,0,0,0,0,0,0,0,0,0,0,0,0,0,0,0,0,0,0,0,0,0,0,0,0,0,0,0,0,0,0,0,0,0,0,0,0],"id":1,"left_children":[1,-1,3,-1,5,7,9,11,13,15,17,-1,19,21,23,-1,-1,-1,25,-1,-1,-1,-1,27,29,31,33,-1,35,-1,37,-1,-1,39,41,-1,-1,-1,-1,-1,-1,-1,-1],"loss_changes":[5.660712E2,0E0,1.6024707E2,0E0,1.4059912E2,7.007474E1,1.5612952E2,1.2022402E1,9.655096E1,1.9769775E1,1.3573746E2,0E0,7.7064896E-1,6.243954E-1,4.6649757E1,0E0,0E0,0E0,1.1048056E2,0E0,0E0,0E0,0E0,5.3522E0,3.9106308E1,6.531143E0,8.840509E1,0E0,6.0445867E0,0E0,2.6988297E1,0E0,0E0,4.3408092E1,7.823523E1,0E0,0E0,0E0,0E0,0E0,0E0,0E0,0E0],"parents":[2147483647,0,0,2,2,4,4,5,5,6,6,7,7,8,8,9,9,10,10,12,12,13,13,14,14,18,18,23,23,24,24,25,25,26,26,28,28,30,30,33,33,34,34],"right_children":[2,-1,4,-1,6,8,10,12,14,16,18,-1,20,22,24,-1,-1,-1,26,-1,-1,-1,-1,28,30,32,34,-1,36,-1,38,-1,-1,40,42,-1,-1,-1,-1,-1,-1,-1,-1],"split_conditions":[2.00001E0,1.933575E-1,2.00001E0,1.897921E-1,2.00001E0,2.00001E0,2.00001E0,2.00001E0,2.00001E0,2.00001E0,2.00001E0,1.3738348E-1,2.00001E0,2.00001E0,2.00001E0,1.517176E-1,-6.0833562E-2,1.8917246E-1,2.00001E0,-6.107333E-2,1.0889254E-2,-5.676973E-2,7.6717413E-3,2.00001E0,2.00001E0,2.00001E0,2.00001E0,9.564539E-2,2.00001E0,-4.6753224E-2,2.00001E0,1.8364534E-1,-3.538431E-2,2.00001E0,2.00001E0,-2.6028428E-2,5.262197E-2,-1.5272572E-2,1.3697551E-1,-8.083432E-3,1.200876E-1,2.132995E-1,-3.7005648E-2],"split_indices":[327,0,289,0,45,819,372,60,1101,1296,502,0,466,827,309,0,0,0,1138,0,0,0,0,820,834,827,1253,0,569,0,825,0,0,640,1961,0,0,0,0,0,0,0,0],"split_type":[0,0,0,0,0,0,0,0,0,0,0,0,0,0,0,0,0,0,0,0,0,0,0,0,0,0,0,0,0,0,0,0,0,0,0,0,0,0,0,0,0,0,0],"sum_hessian":[7.430322E3,1.0441042E2,7.3259116E3,2.9236004E1,7.2966753E3,3.811779E2,6.9154976E3,9.853997E1,2.826379E2,3.1810488E3,3.7344487E3,2.264729E0,9.6275246E1,7.258441E1,2.100535E2,3.4633634E0,3.1775854E3,2.696658E1,3.7074822E3,9.504728E1,1.2279621E0,7.12771E1,1.3073099E0,5.7998955E1,1.5205453E2,2.5158869E1,3.6823232E3,4.456862E0,5.354209E1,1.4528861E1,1.3752568E2,2.4030912E1,1.127957E0,1.0447461E2,3.5778486E3,4.186741E1,1.16746855E1,1.2620834E1,1.2490485E2,5.200824E1,5.246637E1,1.1551983E1,3.5662966E3],"tree_param":{"num_deleted":"0","num_feature":"2341","num_nodes":"43","size_leaf_vector":"1"}},{"base_weights":[7.440861E-2,1.9161781E0,-9.275219E-2,-5.291037E-2,1.9405013E0,7.0862603E-1,-4.0573296E-1,5.2528787E-2,1.9425333E-1,4.0859765E-1,1.3104423E0,1.5387019E0,-4.6154767E-1,1.7751335E0,3.220368E-1,-4.4482436E-2,1.3660179E0,-5.8973778E-2,1.9297913E-1,1.0689878E0,-5.2648985E-1,-4.8518013E-2,1.892476E-1,1.8029269E0,2.9382625E-1,5.852759E-1,1.4551862E0,-5.873322E-2,1.2652748E0,1.4962901E-1,-5.637971E-1,6.764395E-2,1.8638337E-1,3.330442E-1,-3.522295E-1,-3.0900538E-1,6.976875E-1,-4.2084266E-2,1.4949762E0,-5.0516475E-2,1.3141613E0,-6.0857862E-2,5.3836644E-1,1.431796E0,-5.7063687E-1,-2.5007138E-1,3.741798E-1,5.2483624E-1,-3.9956424E-1,7.6123634E-3,-3.9321643E-1,-1.559656E-2,7.706817E-1,-5.358076E-2,1.5212965E0,-5.097105E-2,1.359933E0,1.5289361E0,8.136725E-2,1.0350909E-1,1.7373101E-1,1.9597976E-1,-5.845364E-1,2.272511E-2,-2.825034E-2,1.5081073E-1,3.5551004E-2,1.1482515E-2,6.598874E-2,2.6481746E-2,-4.4832066E-2,7.6123634E-3,-5.1692557E-2,-2.453407E-2,8.3864085E-2,2.8929004E-2,1.5368226E-1,-3.0867329E-2,1.4030682E-1,2.2202587E-2,1.6425942E-1,3.953467E-2,-5.9034415E-2,-4.8809E-2,9.812351E-2,1.8372926E-1,-5.865572E-2],"categories":[],"categories_nodes":[],"categories_segments":[],"categories_sizes":[],"default_left":[0,0,0,0,0,0,0,0,0,0,0,0,0,0,0,0,0,0,0,0,0,0,0,0,0,0,0,0,0,0,0,0,0,0,0,0,0,0,0,0,0,0,0,0,0,0,0,0,0,0,0,0,0,0,0,0,0,0,0,0,0,0,0,0,0,0,0,0,0,0,0,0,0,0,0,0,0,0,0,0,0,0,0,0,0,0,0],"id":2,"left_children":[1,3,5,-1,7,9,11,-1,-1,13,15,17,19,21,23,-1,25,-1,-1,27,29,-1,-1,31,33,35,37,-1,39,41,43,-1,-1,45,47,49,51,-1,53,-1,55,-1,57,59,61,63,65,67,69,-1,71,-1,73,-1,75,-1,77,79,81,-1,-1,83,85,-1,-1,-1,-1,-1,-1,-1,-1,-1,-1,-1,-1,-1,-1,-1,-1,-1,-1,-1,-1,-1,-1,-1,-1],"loss_changes":[2.3709104E3,3.913916E1,1.7712002E3,0E0,8.046875E-1,3.5759442E2,5.5183606E2,0E0,0E0,1.5616316E2,6.493176E1,1.1928357E2,4.9130774E2,2.1794418E1,5.1578796E1,0E0,4.366211E1,0E0,0E0,6.61871E1,1.1957019E2,0E0,0E0,3.2565308E-1,3.1159912E1,6.972412E0,4.3416138E1,0E0,1.62677E1,7.357166E1,6.2095093E1,0E0,0E0,2.7812408E1,3.1408424E0,2.958249E-1,3.8598518E0,0E0,3.0828125E1,0E0,1.5362396E1,0E0,7.4481674E1,9.482193E-2,4.779663E1,1.2522969E0,2.2324219E1,1.4835036E-1,2.3070412E0,0E0,4.3937194E-1,0E0,4.034878E0,0E0,1.0163574E1,0E0,1.2790466E1,7.355461E0,2.4241163E1,0E0,0E0,4.3687347E1,2.2589844E1,0E0,0E0,0E0,0E0,0E0,0E0,0E0,0E0,0E0,0E0,0E0,0E0,0E0,0E0,0E0,0E0,0E0,0E0,0E0,0E0,0E0,0E0,0E0,0E0],"parents":[2147483647,0,0,1,1,2,2,4,4,5,5,6,6,9,9,10,10,11,11,12,12,13,13,14,14,16,16,19,19,20,20,23,23,24,24,25,25,26,26,28,28,29,29,30,30,33,33,34,34,35,35,36,36,38,38,40,40,42,42,43,43,44,44,45,45,46,46,47,47,48,48,50,50,52,52,54,54,56,56,57,57,58,58,61,61,62,62],"right_children":[2,4,6,-1,8,10,12,-1,-1,14,16,18,20,22,24,-1,26,-1,-1,28,30,-1,-1,32,34,36,38,-1,40,42,44,-1,-1,46,48,50,52,-1,54,-1,56,-1,58,60,62,64,66,68,70,-1,72,-1,74,-1,76,-1,78,80,82,-1,-1,84,86,-1,-1,-1,-1,-1,-1,-1,-1,-1,-1,-1,-1,-1,-1,-1,-1,-1,-1,-1,-1,-1,-1,-1,-1],"split_conditions":[2.00001E0,2.00001E0,2.00001E0,-5.291037E-2,2.00001E0,2.00001E0,2.00001E0,5.2528787E-2,1.9425333E-1,2.00001E0,2.00001E0,2.00001E0,2.00001E0,2.00001E0,2.00001E0,-4.4482436E-2,2.00001E0,-5.8973778E-2,1.9297913E-1,2.00001E0,2.00001E0,-4.8518013E-2,1.892476E-1,2.00001E0,2.00001E0,2.00001E0,2.00001E0,-5.873322E-2,2.00001E0,2.00001E0,2.00001E0,6.764395E-2,1.8638337E-1,2.00001E0,2.00001E0,2.00001E0,2.00001E0,-4.2084266E-2,2.00001E0,-5.0516475E-2,2.00001E0,-6.0857862E-2,2.00001E0,2.00001E0,2.00001E0,2.00001E0,2.00001E0,2.00001E0,2.00001E0,7.6123634E-3,2.00001E0,-1.559656E-2,2.00001E0,-5.358076E-2,2.00001E0,-5.097105E-2,2.00001E0,2.00001E0,2.00001E0,1.0350909E-1,1.7373101E-1,2.00001E0,2.00001E0,2.272511E-2,-2.825034E-2,1.5081073E-1,3.5551004E-2,1.1482515E-2,6.598874E-2,2.6481746E-2,-4.4832066E-2,7.6123634E-3,-5.1692557E-2,-2.453407E-2,8.3864085E-2,2.8929004E-2,1.5368226E-1,-3.0867329E-2,1.4030682E-1,2.2202587E-2,1.6425942E-1,3.953467E-2,-5.9034415E-2,-4.8809E-2,9.812351E-2,1.8372926E-1,-5.865572E-2],"split_indices":[953,64,1725,0,2338,702,1146,0,0,910,1138,362,1616,1246,2110,0,1204,0,0,134,22,0,0,415,48,892,836,0,901,327,1084,0,0,2204,896,32,427,0,430,0,2174,0,485,21,133,27,2117,29,42,0,349,0,694,0,825,0,1815,827,973,0,0,568,431,0,0,0,0,0,0,0,0,0,0,0,0,0,0,0,0,0,0,0,0,0,0,0,0],"split_type":[0,0,0,0,0,0,0,0,0,0,0,0,0,0,0,0,0,0,0,0,0,0,0,0,0,0,0,0,0,0,0,0,0,0,0,0,0,0,0,0,0,0,0,0,0,0,0,0,0,0,0,0,0,0,0,0,0,0,0,0,0,0,0,0,0,0,0,0,0,0,0,0,0,0,0,0,0,0,0,0,0,0,0,0,0,0,0],"sum_hessian":[7.6993926E3,6.397871E2,7.0596055E3,6.0968857E0,6.336902E2,1.9824178E3,5.077188E3,1.2806139E0,6.324096E2,1.3240215E3,6.5839636E2,1.4093187E2,4.936256E3,7.7709816E1,1.2463116E3,1.9991575E1,6.384048E2,2.1797052E1,1.1913482E2,2.0029552E2,4.7359604E3,3.6804378E0,7.402938E1,2.212205E1,1.2241897E3,6.621361E1,5.7219116E2,2.1010576E1,1.7928494E2,2.4750073E2,4.4884595E3,1.7557181E0,2.0366331E1,1.1545865E3,6.960311E1,7.1984053E0,5.90152E1,1.1685006E1,5.6050616E2,4.5667195E0,1.7471822E2,8.369447E1,1.6380626E2,1.46197E1,4.47384E3,7.5747826E1,1.0788387E3,3.0475354E0,6.655557E1,1.3088009E0,5.889604E0,4.5592265E0,5.4455975E1,6.9239206E0,5.535822E2,4.0292206E0,1.70689E2,5.097332E1,1.1283295E2,8.269685E0,6.350015E0,7.9437225E1,4.394403E3,4.4371114E0,7.1310715E1,1.618279E1,1.0626559E3,1.2135302E0,1.8340051E0,4.2473555E0,6.230822E1,1.3088009E0,4.5808034E0,3.2504253E0,5.120555E1,7.1339173E0,5.464483E2,4.146157E0,1.6654285E2,4.314618E0,4.6658703E1,7.717181E1,3.566114E1,4.2656094E1,3.6781128E1,2.9066648E0,4.391496E3],"tree_param":{"num_deleted":"0","num_feature":"2341","num_nodes":"87","size_leaf_vector":"1"}},{"base_weights":[-6.1059177E-1,1.4269435E-1,-6.1126947E-2],"categories":[],"categories_nodes":[],"categories_segments":[],"categories_sizes":[],"default_left":[0,0,0],"id":3,"left_children":[1,-1,-1],"loss_changes":[1.094873E1,0E0,0E0],"parents":[2147483647,0,0],"right_children":[2,-1,-1],"split_conditions":[2.00001E0,1.4269435E-1,-6.1126947E-2],"split_indices":[16,0,0],"split_type":[0,0,0],"sum_hessian":[7.2958525E3,1.7262201E0,7.294126E3],"tree_param":{"num_deleted":"0","num_feature":"2341","num_nodes":"3","size_leaf_vector":"1"}},{"base_weights":[3.2512462E-3,1.3694385E0,-4.2242533E-1,1.6297868E0,-5.519675E-1,1.5012045E0,-4.806509E-1,1.7758856E0,1.3787299E0,-2.3240325E-1,-5.9667885E-1,1.7223139E0,2.1935478E-1,1.8820374E-1,-5.0494033E-1,3.367853E-1,1.8045843E0,1.9620262E-1,1.2321472E0,-4.979644E-2,-1.5994078E-2,-3.464361E-2,-6.018151E-2,3.003169E-2,1.7690291E0,-5.7794657E-2,9.973578E-1,4.7186315E-1,-5.587823E-1,-5.829345E-3,1.4679506E-1,-3.771725E-2,1.8167839E0,1.5106313E0,6.7314243E-1,6.013663E-1,1.7944331E0,8.774297E-3,1.0836941E0,-5.9353884E-2,5.945024E-1,2.0133792E-1,-5.6972027E-1,2.78173E-1,1.8314908E0,-2.7835593E-1,1.5817047E0,1.8554871E-1,5.3369635E-1,-3.3438433E-2,9.838767E-2,4.1960657E-2,1.8060992E0,4.4512223E-2,1.2592585E-1,2.2889712E-1,6.863137E-1,1.8698843E-1,-5.743201E-1,1.4873949E-1,-3.0035613E-2,1.3314651E0,1.8519021E0,1.1076557E-1,-4.961057E-2,5.2594167E-1,1.6912837E0,1.8715014E-1,4.0891927E-1,1.911426E-1,1.5732638E0,2.4134416E-2,-7.2152102E-3,2.713258E-1,7.7811325E-1,1.5795605E-1,-5.759677E-1,1.6946764E-1,-5.7917144E-2,4.9117293E-2,1.8557909E-1,1.22505024E-1,-1.1984213E-2,5.8763724E-2,1.8042277E-1,1.5354712E-1,2.7572403E-2,9.290313E-2,1.7083064E-1,-4.129853E-2,3.1732924E-2,9.480005E-3,8.240546E-2,9.390835E-2,-5.7708144E-2],"categories":[],"categories_nodes":[],"categories_segments":[],"categories_sizes":[],"default_left":[0,0,0,0,0,0,0,0,0,0,0,0,0,0,0,0,0,0,0,0,0,0,0,0,0,0,0,0,0,0,0,0,0,0,0,0,0,0,0,0,0,0,0,0,0,0,0,0,0,0,0,0,0,0,0,0,0,0,0,0,0,0,0,0,0,0,0,0,0,0,0,0,0,0,0,0,0,0,0,0,0,0,0,0,0,0,0,0,0,0,0,0,0,0,0],"id":4,"left_children":[1,3,5,7,9,11,13,15,17,19,21,23,25,-1,27,29,31,-1,33,-1,-1,-1,-1,-1,35,-1,37,39,41,-1,-1,-1,43,45,47,49,51,-1,53,-1,55,-1,57,59,61,63,65,-1,67,-1,-1,-1,69,-1,-1,71,73,-1,75,-1,-1,77,79,-1,-1,81,83,-1,85,-1,87,-1,-1,89,91,-1,93,-1,-1,-1,-1,-1,-1,-1,-1,-1,-1,-1,-1,-1,-1,-1,-1,-1,-1],"loss_changes":[4.457439E3,9.1174316E2,6.552615E2,5.637744E1,2.9765244E0,4.83526E1,3.2651135E2,4.1120117E1,4.8408813E1,4.668368E-1,3.652191E-2,9.200104E0,1.697713E1,0E0,2.9562646E2,9.463338E0,2.704541E1,0E0,7.335724E1,0E0,0E0,0E0,0E0,0E0,3.1220398E0,0E0,9.84642E-1,3.8757538E1,1.5090796E2,0E0,0E0,0E0,2.178003E1,4.0884888E1,2.5499657E1,1.9467595E0,1.4571838E0,0E0,8.3736134E-1,0E0,8.707413E0,0E0,6.05636E1,7.7959957E0,7.4904785E0,4.474337E0,3.4520996E1,0E0,2.3459526E1,0E0,0E0,0E0,3.4387207E-1,0E0,0E0,2.2166014E-1,7.81102E0,0E0,1.9690674E1,0E0,0E0,3.0001984E1,4.034912E0,0E0,0E0,1.3796086E1,3.344922E1,0E0,1.9686634E1,0E0,2.607376E0,0E0,0E0,1.3801963E0,5.318199E0,0E0,9.46582E0,0E0,0E0,0E0,0E0,0E0,0E0,0E0,0E0,0E0,0E0,0E0,0E0,0E0,0E0,0E0,0E0,0E0,0E0],"parents":[2147483647,0,0,1,1,2,2,3,3,4,4,5,5,6,6,7,7,8,8,9,9,10,10,11,11,12,12,14,14,15,15,16,16,18,18,24,24,26,26,27,27,28,28,32,32,33,33,34,34,35,35,36,36,38,38,40,40,42,42,43,43,44,44,45,45,46,46,48,48,52,52,55,55,56,56,58,58,61,61,62,62,65,65,66,66,68,68,70,70,73,73,74,74,76,76],"right_children":[2,4,6,8,10,12,14,16,18,20,22,24,26,-1,28,30,32,-1,34,-1,-1,-1,-1,-1,36,-1,38,40,42,-1,-1,-1,44,46,48,50,52,-1,54,-1,56,-1,58,60,62,64,66,-1,68,-1,-1,-1,70,-1,-1,72,74,-1,76,-1,-1,78,80,-1,-1,82,84,-1,86,-1,88,-1,-1,90,92,-1,94,-1,-1,-1,-1,-1,-1,-1,-1,-1,-1,-1,-1,-1,-1,-1,-1,-1,-1],"split_conditions":[2.00001E0,2.00001E0,2.00001E0,2.00001E0,2.00001E0,2.00001E0,2.00001E0,2.00001E0,2.00001E0,2.00001E0,2.00001E0,2.00001E0,2.00001E0,1.8820374E-1,2.00001E0,2.00001E0,2.00001E0,1.9620262E-1,2.00001E0,-4.979644E-2,-1.5994078E-2,-3.464361E-2,-6.018151E-2,3.003169E-2,2.00001E0,-5.7794657E-2,2.00001E0,2.00001E0,2.00001E0,-5.829345E-3,1.4679506E-1,-3.771725E-2,2.00001E0,2.00001E0,2.00001E0,2.00001E0,2.00001E0,8.774297E-3,2.00001E0,-5.9353884E-2,2.00001E0,2.0133792E-1,2.00001E0,2.00001E0,2.00001E0,2.00001E0,2.00001E0,1.8554871E-1,2.00001E0,-3.3438433E-2,9.838767E-2,4.1960657E-2,2.00001E0,4.4512223E-2,1.2592585E-1,2.00001E0,2.00001E0,1.8698843E-1,2.00001E0,1.4873949E-1,-3.0035613E-2,2.00001E0,2.00001E0,1.1076557E-1,-4.961057E-2,2.00001E0,2.00001E0,1.8715014E-1,2.00001E0,1.911426E-1,2.00001E0,2.4134416E-2,-7.2152102E-3,2.00001E0,2.00001E0,1.5795605E-1,2.00001E0,1.6946764E-1,-5.7917144E-2,4.9117293E-2,1.8557909E-1,1.22505024E-1,-1.1984213E-2,5.8763724E-2,1.8042277E-1,1.5354712E-1,2.7572403E-2,9.290313E-2,1.7083064E-1,-4.129853E-2,3.1732924E-2,9.480005E-3,8.240546E-2,9.390835E-2,-5.7708144E-2],"split_indices":[466,1082,97,1257,896,569,247,1613,819,1019,897,820,287,0,547,894,665,0,1023,0,0,0,0,0,1095,0,575,1061,492,0,0,0,1606,1722,834,544,825,0,830,0,1054,0,129,893,1995,928,894,0,825,0,0,0,1101,0,0,1421,1058,0,195,0,0,640,884,0,0,1705,643,0,830,0,287,0,0,1426,1064,0,2131,0,0,0,0,0,0,0,0,0,0,0,0,0,0,0,0,0,0],"split_type":[0,0,0,0,0,0,0,0,0,0,0,0,0,0,0,0,0,0,0,0,0,0,0,0,0,0,0,0,0,0,0,0,0,0,0,0,0,0,0,0,0,0,0,0,0,0,0,0,0,0,0,0,0,0,0,0,0,0,0,0,0,0,0,0,0,0,0,0,0,0,0,0,0,0,0,0,0,0,0,0,0,0,0,0,0,0,0,0,0,0,0,0,0,0,0],"sum_hessian":[7.6627095E3,1.8198325E3,5.842877E3,1.6028059E3,2.1702652E2,1.7093161E2,5.6719453E3,1.0093538E3,5.9345215E2,2.7398659E1,1.8962787E2,1.4549176E2,2.5439848E1,5.693837E1,5.615007E3,1.9984066E1,9.8936975E2,1.16696655E2,4.767555E2,4.614685E0,2.2783974E1,5.190486E0,1.8443738E2,4.8639402E0,1.406278E2,1.2691093E1,1.27487545E1,2.929281E2,5.3220786E3,1.5514003E1,4.470063E0,5.3350873E0,9.8403467E2,3.1708716E2,1.5966833E2,3.5197294E0,1.3710808E2,1.2799414E0,1.1468813E1,2.9842052E1,2.6308603E2,2.1760836E1,5.300318E3,9.505378E0,9.745293E2,1.2004553E1,3.050826E2,1.5546397E1,1.4412193E2,1.057802E0,2.4619274E0,1.4646841E0,1.356434E2,3.2355788E0,8.233234E0,5.3506958E1,2.0957907E2,9.211628E0,5.2911064E3,2.5676239E0,6.9377537E0,4.0818382E1,9.337109E2,1.0750246E0,1.0929528E1,2.923276E1,2.7584985E2,1.1101179E1,1.3302075E2,8.8430855E1,4.7212543E1,5.157297E1,1.9339864E0,3.867973E1,1.7089935E2,3.3124218E0,5.287794E3,3.439327E1,6.4251156E0,3.023584E0,9.306873E2,1.3606128E1,1.5626633E1,2.6184778E1,2.4966507E2,1.2951376E1,1.2006938E2,9.547049E0,3.7665493E1,1.9339864E0,3.6745743E1,1.0959256E1,1.599401E2,3.265508E0,5.2845283E3],"tree_param":{"num_deleted":"0","num_feature":"2341","num_nodes":"95","size_leaf_vector":"1"}}]},"name":"gbtree"},"learner_model_param":{"base_score":"5E-1","boost_from_average":"1","num_class":"5","num_feature":"2341","num_target":"1"},"objective":{"name":"multi:softprob","softmax_multiclass_param":{"num_class":"5"}}},"version":[2,0,2]}