{"learner":{"attributes":{},"feature_names":[],"feature_types":[],"gradient_booster":{"model":{"gbtree_model_param":{"num_parallel_tree":"1","num_trees":"5"},"iteration_indptr":[0,5],"tree_info":[0,1,2,3,4],"trees":[{"base_weights":[7.3504215E-1,1.5239998E0,3.9210725E-1,-6.0048174E-2,1.5923448E0,-4.110796E-1,7.6215804E-1,-5.308238E-1,1.6084615E0,1.6289791E-1,-4.822855E-1,-2.73841E-1,8.385203E-1,-5.7608973E-2,5.6072897E-3,-5.3183902E-2,1.6143601E0,-5.987881E-1,4.3632543E-1,1.6024593E-1,-5.6548643E-1,-2.6417655E-1,9.2302364E-1,2.9931942E-2,1.6151627E0,1.3767998E-1,-6.034333E-1,3.2565128E-2,1.1998991E0,1.0387349E-1,-5.805064E-1,-5.597129E-1,-1.1814494E-1,-6.0619194E-2,9.9589354E-1,4.817411E-2,1.6155361E0,1.0508009E-1,-6.051987E-1,1.06514014E-1,-4.5064192E-2,-4.9242646E-2,1.3045185E0,-1.5809454E-1,-6.073537E-2,-5.903965E-1,2.5166275E-2,-1.4368059E-1,1.3703327E-1,-1.9428174E-1,1.079043E0,7.0093594E-2,1.6161132E-1,6.0920613E-3,-6.069581E-1,1.0574814E-1,-1.1575087E-1,-4.7628723E-2,1.3868603E0,3.6355633E-1,-4.7932442E-2,-3.3055696E-1,-6.0129236E-2,-4.1904833E-2,3.878501E-2,8.8708675E-1,-1.7902935E-1,2.0558892E-1,-2.3329638E-1,-4.0489182E-1,1.1111499E0,-4.6311557E-2,7.062128E-2,6.0289507E-3,-6.0753953E-2,5.958383E-2,-1.572766E-2,-3.9993312E-2,1.4441903E-1,-3.7033703E-2,6.462919E-2,1.1317818E-2,-4.7465425E-2,3.5923984E-2,1.17157064E-1,5.343602E-2,-2.0492313E-2,4.127864E-2,-3.7629586E-2,1.493103E-1,-5.9823513E-2,-5.987522E-2,1.1346694E-1],"categories":[],"categories_nodes":[],"categories_segments":[],"categories_sizes":[],"default_left":[0,0,0,0,0,0,0,0,0,0,0,0,0,0,0,0,0,0,0,0,0,0,0,0,0,0,0,0,0,0,0,0,0,0,0,0,0,0,0,0,0,0,0,0,0,0,0,0,0,0,0,0,0,0,0,0,0,0,0,0,0,0,0,0,0,0,0,0,0,0,0,0,0,0,0,0,0,0,0,0,0,0,0,0,0,0,0,0,0,0,0,0,0],"id":0,"left_children":[1,3,5,-1,7,9,11,13,15,-1,17,19,21,-1,-1,-1,23,25,27,-1,29,31,33,-1,35,-1,37,39,41,-1,43,45,47,-1,49,-1,51,-1,53,-1,55,-1,57,59,-1,61,63,65,-1,67,69,-1,-1,71,73,-1,75,-1,77,79,-1,81,-1,-1,-1,83,85,-1,87,89,91,-1,-1,-1,-1,-1,-1,-1,-1,-1,-1,-1,-1,-1,-1,-1,-1,-1,-1,-1,-1,-1,-1],"loss_changes":[2.3810713E3,3.8814697E2,1.8243676E3,0E0,8.926904E1,2.820662E2,3.3263257E2,5.694127E-1,3.323535E1,0E0,2.0058258E2,1.5915877E2,3.6491138E2,0E0,0E0,0E0,2.2172852E0,1.607904E1,6.508971E1,0E0,6.6516647E0,1.198938E1,4.0568628E2,0E0,3.0273438E-1,0E0,5.47876E0,1.1206868E1,1.357412E1,0E0,2.731697E0,1.6679249E0,7.3511534E0,0E0,3.436311E2,0E0,2.1582031E-1,0E0,1.7860107E0,0E0,1.0287977E1,0E0,1.0787369E1,2.897683E0,0E0,4.9137115E-2,1.0567807E0,6.934324E0,0E0,2.0447931E1,1.5499707E2,0E0,0E0,2.214696E0,6.777344E-1,0E0,3.742415E0,0E0,7.365593E0,1.6425782E0,0E0,4.2105585E-1,0E0,0E0,0E0,5.301957E-1,3.4459996E0,0E0,2.089473E1,2.6371449E1,1.2837842E2,0E0,0E0,0E0,0E0,0E0,0E0,0E0,0E0,0E0,0E0,0E0,0E0,0E0,0E0,0E0,0E0,0E0,0E0,0E0,0E0,0E0,0E0],"parents":[2147483647,0,0,1,1,2,2,4,4,5,5,6,6,7,7,8,8,10,10,11,11,12,12,16,16,17,17,18,18,20,20,21,21,22,22,24,24,26,26,27,27,28,28,30,30,31,31,32,32,34,34,36,36,38,38,40,40,42,42,43,43,45,45,46,46,47,47,49,49,50,50,53,53,54,54,56,56,58,58,59,59,61,61,65,65,66,66,68,68,69,69,70,70],"right_children":[2,4,6,-1,8,10,12,14,16,-1,18,20,22,-1,-1,-1,24,26,28,-1,30,32,34,-1,36,-1,38,40,42,-1,44,46,48,-1,50,-1,52,-1,54,-1,56,-1,58,60,-1,62,64,66,-1,68,70,-1,-1,72,74,-1,76,-1,78,80,-1,82,-1,-1,-1,84,86,-1,88,90,92,-1,-1,-1,-1,-1,-1,-1,-1,-1,-1,-1,-1,-1,-1,-1,-1,-1,-1,-1,-1,-1,-1],"split_conditions":[2.00001E0,2.00001E0,2.00001E0,-6.0048174E-2,2.00001E0,2.00001E0,2.00001E0,2.00001E0,2.00001E0,1.6289791E-1,2.00001E0,2.00001E0,2.00001E0,-5.7608973E-2,5.6072897E-3,-5.3183902E-2,2.00001E0,2.00001E0,2.00001E0,1.6024593E-1,2.00001E0,2.00001E0,2.00001E0,2.9931942E-2,2.00001E0,1.3767998E-1,2.00001E0,2.00001E0,2.00001E0,1.0387349E-1,2.00001E0,2.00001E0,2.00001E0,-6.0619194E-2,2.00001E0,4.817411E-2,2.00001E0,1.0508009E-1,2.00001E0,1.06514014E-1,2.00001E0,-4.9242646E-2,2.00001E0,2.00001E0,-6.073537E-2,2.00001E0,2.00001E0,2.00001E0,1.3703327E-1,2.00001E0,2.00001E0,7.0093594E-2,1.6161132E-1,2.00001E0,2.00001E0,1.0574814E-1,2.00001E0,-4.7628723E-2,2.00001E0,2.00001E0,-4.7932442E-2,2.00001E0,-6.0129236E-2,-4.1904833E-2,3.878501E-2,2.00001E0,2.00001E0,2.0558892E-1,2.00001E0,2.00001E0,2.00001E0,-4.6311557E-2,7.062128E-2,6.0289507E-3,-6.0753953E-2,5.958383E-2,-1.572766E-2,-3.9993312E-2,1.4441903E-1,-3.7033703E-2,6.462919E-2,1.1317818E-2,-4.7465425E-2,3.5923984E-2,1.17157064E-1,5.343602E-2,-2.0492313E-2,4.127864E-2,-3.7629586E-2,1.493103E-1,-5.9823513E-2,-5.987522E-2,1.1346694E-1],"split_indices":[18,1247,1082,0,1015,1014,64,85,502,0,379,470,704,0,0,0,1466,225,368,0,473,893,953,0,1505,0,10,826,851,0,328,2111,48,0,1616,0,1461,0,172,0,822,0,820,1007,0,412,2221,895,0,817,1186,0,0,133,67,0,825,0,827,820,0,681,0,0,0,2111,2135,0,620,1246,362,0,0,0,0,0,0,0,0,0,0,0,0,0,0,0,0,0,0,0,0,0,0],"split_type":[0,0,0,0,0,0,0,0,0,0,0,0,0,0,0,0,0,0,0,0,0,0,0,0,0,0,0,0,0,0,0,0,0,0,0,0,0,0,0,0,0,0,0,0,0,0,0,0,0,0,0,0,0,0,0,0,0,0,0,0,0,0,0,0,0,0,0,0,0,0,0,0,0,0,0,0,0,0,0,0,0,0,0,0,0,0,0,0,0,0,0,0,0],"sum_hessian":[8.801703E3,2.665651E3,6.1360527E3,8.2838974E1,2.582812E3,1.9353368E3,4.200716E3,1.9217566E1,2.5635942E3,6.453464E1,1.8708022E3,2.881967E2,3.912519E3,1.7858587E1,1.358977E0,6.8007493E0,2.5567937E3,1.6605514E3,2.1025081E2,3.8165367E1,2.5003133E2,2.783365E2,3.6341826E3,1.787728E0,2.5550059E3,3.2024035E0,1.657349E3,1.3821077E2,7.204005E1,1.6870525E0,2.4834428E2,9.111224E1,1.8722424E2,1.6496582E2,3.4692168E3,1.2664732E0,2.5537395E3,1.1332902E0,1.6562157E3,8.774689E0,1.2943608E2,3.9784052E0,6.806164E1,1.5252457E1,2.3309183E2,8.656165E1,4.550592E0,1.8495471E2,2.2695289E0,2.2645633E2,3.2427605E3,2.3770294E0,2.5513623E3,4.746199E0,1.6514695E3,6.9573708E0,1.2247871E2,2.7965424E0,6.52651E1,5.76264E0,9.489817E0,4.7449083E0,8.181675E1,1.9755418E0,2.5750499E0,5.3335466E0,1.7962115E2,2.978456E0,2.2347787E2,6.842965E1,3.1743308E3,3.0444121E0,1.7017868E0,1.3483936E0,1.6501211E3,6.017281E0,1.16461426E2,1.8431776E0,6.342192E1,1.5164841E0,4.2461557E0,1.2157334E0,3.529175E0,2.6602857E0,2.6732607E0,5.6035414E0,1.7401762E2,4.0157326E1,1.8332054E2,5.704795E0,6.2724854E1,4.273814E1,3.1315928E3],"tree_param":{"num_deleted":"0","num_feature":"2341","num_nodes":"93","size_leaf_vector":"1"}},{"base_weights":[-3.7853757E-1,1.9322842E-1,-4.08937E-1,1.87811E-1,-4.1644934E-1,8.359059E-2,-4.4939387E-1,1.9058469E-1,-2.73321E-3,8.5565686E-2,-4.812781E-1,1.0444835E0,-1.6282932E-1,-5.73993E-1,3.383774E-1,3.6952975E-1,-5.000464E-1,2.0974395E0,2.5419122E-1,3.5791156E-1,-3.0614007E-1,1.0475949E-1,-6.0117062E-2,-4.8252788E-1,6.5763E-1,-6.063169E-2,1.0826967E0,3.8374594E-1,-5.172092E-1,5.6055166E-2,2.1540115E0,1.8087421E-1,9.311011E-2,2.1203129E-1,2.4054022E-1,1.8230705E-1,-3.5491097E-1,-5.1565655E-2,1.7872082E-2,-1.9564658E-2,8.8763535E-1,-1.6399719E-1,1.2859539E0,1.4768136E0,1.5845619E-1,1.5253806E0,-5.2227134E-1,5.6055166E-2,2.2168456E-1,1.7176E-1,-6.3224486E-3,2.0455687E-1,1.31428065E-2,1.675421E-1,-3.7398998E-2,-1.1164149E-2,1.3804589E-1,-5.1999558E-2,1.05226934E-1,1.3365969E-3,-2.7575618E-2,-4.876947E-2,1.3927369E-1,1.8566647E-1,1.17306605E-1,1.6648151E-1,-4.1799447E-3,-3.837495E-2,1.7699414E-1,-6.054343E-2,-4.3432713E-2],"categories":[],"categories_nodes":[],"categories_segments":[],"categories_sizes":[],"default_left":[0,0,0,0,0,0,0,0,0,0,0,0,0,0,0,0,0,0,0,0,0,0,0,0,0,0,0,0,0,0,0,0,0,0,0,0,0,0,0,0,0,0,0,0,0,0,0,0,0,0,0,0,0,0,0,0,0,0,0,0,0,0,0,0,0,0,0,0,0,0,0],"id":1,"left_children":[1,-1,3,-1,5,7,9,-1,11,13,15,17,19,21,23,25,27,29,31,33,35,-1,-1,37,39,-1,41,43,45,-1,47,-1,49,-1,51,-1,53,-1,-1,55,57,59,61,63,65,67,69,-1,-1,-1,-1,-1,-1,-1,-1,-1,-1,-1,-1,-1,-1,-1,-1,-1,-1,-1,-1,-1,-1,-1,-1],"loss_changes":[5.226455E2,0E0,1.2677356E2,0E0,1.2045886E2,7.121398E1,1.1702136E2,0E0,7.279943E1,6.466063E1,1.0354138E2,4.7381924E1,2.8216326E1,5.3674088E0,7.372965E1,9.8280365E1,9.626575E1,9.2702484E-1,8.35317E0,1.639869E1,3.1372707E1,0E0,0E0,1.823019E0,3.1497124E1,0E0,2.0838898E1,2.9617867E1,6.504016E1,0E0,1.0928574E0,0E0,8.207457E0,0E0,1.5047164E1,0E0,1.1863941E1,0E0,0E0,6.8856673E0,3.551438E1,2.4746421E-1,1.3957108E1,1.9824982E-1,3.0726177E1,7.969883E0,4.507141E1,0E0,0E0,0E0,0E0,0E0,0E0,0E0,0E0,0E0,0E0,0E0,0E0,0E0,0E0,0E0,0E0,0E0,0E0,0E0,0E0,0E0,0E0,0E0,0E0],"parents":[2147483647,0,0,2,2,4,4,5,5,6,6,8,8,9,9,10,10,11,11,12,12,13,13,14,14,15,15,16,16,17,17,18,18,19,19,20,20,23,23,24,24,26,26,27,27,28,28,30,30,32,32,34,34,36,36,39,39,40,40,41,41,42,42,43,43,44,44,45,45,46,46],"right_children":[2,-1,4,-1,6,8,10,-1,12,14,16,18,20,22,24,26,28,30,32,34,36,-1,-1,38,40,-1,42,44,46,-1,48,-1,50,-1,52,-1,54,-1,-1,56,58,60,62,64,66,68,70,-1,-1,-1,-1,-1,-1,-1,-1,-1,-1,-1,-1,-1,-1,-1,-1,-1,-1,-1,-1,-1,-1,-1,-1],"split_conditions":[2.00001E0,1.9322842E-1,2.00001E0,1.87811E-1,2.00001E0,2.00001E0,2.00001E0,1.9058469E-1,2.00001E0,2.00001E0,2.00001E0,2.00001E0,2.00001E0,2.00001E0,2.00001E0,2.00001E0,2.00001E0,2.00001E0,2.00001E0,2.00001E0,2.00001E0,1.0475949E-1,-6.0117062E-2,2.00001E0,2.00001E0,-6.063169E-2,2.00001E0,2.00001E0,2.00001E0,5.6055166E-2,2.00001E0,1.8087421E-1,2.00001E0,2.1203129E-1,2.00001E0,1.8230705E-1,2.00001E0,-5.1565655E-2,1.7872082E-2,2.00001E0,2.00001E0,2.00001E0,2.00001E0,2.00001E0,2.00001E0,2.00001E0,2.00001E0,5.6055166E-2,2.2168456E-1,1.7176E-1,-6.3224486E-3,2.0455687E-1,1.31428065E-2,1.675421E-1,-3.7398998E-2,-1.1164149E-2,1.3804589E-1,-5.1999558E-2,1.05226934E-1,1.3365969E-3,-2.7575618E-2,-4.876947E-2,1.3927369E-1,1.8566647E-1,1.17306605E-1,1.6648151E-1,-4.1799447E-3,-3.837495E-2,1.7699414E-1,-6.054343E-2,-4.3432713E-2],"split_indices":[327,0,289,0,228,1138,45,0,593,819,401,640,568,60,1101,96,1253,41,901,2044,836,0,0,827,309,0,21,894,1722,0,1204,0,552,0,1045,0,1136,0,0,403,834,833,1328,1021,893,928,372,0,0,0,0,0,0,0,0,0,0,0,0,0,0,0,0,0,0,0,0,0,0,0,0],"split_type":[0,0,0,0,0,0,0,0,0,0,0,0,0,0,0,0,0,0,0,0,0,0,0,0,0,0,0,0,0,0,0,0,0,0,0,0,0,0,0,0,0,0,0,0,0,0,0,0,0,0,0,0,0,0,0,0,0,0,0,0,0,0,0,0,0,0,0,0,0,0,0],"sum_hessian":[7.4277876E3,9.563334E1,7.3321543E3,2.3190067E1,7.3089644E3,4.5168234E2,6.8572817E3,1.9475952E1,4.322064E2,3.8561862E2,6.471663E3,5.658034E1,3.7562604E2,1.0650029E2,2.7911832E2,1.3927605E2,6.332387E3,2.3549656E1,3.3030685E1,8.074168E1,2.9488437E2,1.1366085E0,1.05363686E2,7.8011986E1,2.0110634E2,5.8871002E1,8.040505E1,1.2022248E2,6.2121646E3,1.2233588E0,2.2326298E1,2.1408777E0,3.0889809E1,3.975916E0,7.676576E1,5.7886066E0,2.8909576E2,7.449972E1,3.512269E0,5.12191E1,1.4988724E2,1.1298426E1,6.910662E1,1.959512E1,1.0062736E2,1.4615097E1,6.19755E3,1.2233588E0,2.1102938E1,1.8350382E0,2.905477E1,3.3642366E0,7.340153E1,1.8831342E0,2.8721262E2,4.8921864E1,2.2972386E0,1.5468882E1,1.3441835E2,4.7076774E0,6.5907483E0,3.7217531E0,6.538487E1,6.4351377E0,1.3159982E1,1.0949535E1,8.9677826E1,1.5949796E0,1.3020117E1,3.182339E3,3.0152104E3],"tree_param":{"num_deleted":"0","num_feature":"2341","num_nodes":"71","size_leaf_vector":"1"}},{"base_weights":[8.684069E-2,1.9250451E0,-8.6533695E-2,-4.9348217E-2,1.9403948E0,7.129798E-1,-3.9693564E-1,1.9425534E-1,4.958207E-2,4.1041753E-1,1.3032817E0,1.6099329E0,-4.57435E-1,1.7715815E0,3.136283E-1,-5.8264136E-2,1.3508698E0,1.931399E-1,-5.8616925E-2,9.8433656E-1,-5.1940715E-1,-4.979382E-2,1.8951437E-1,1.7991434E-1,2.8824508E-1,-5.599935E-2,1.3809065E0,-5.8681767E-2,1.1628522E0,2.8866494E-1,-5.57036E-1,1.0017167E0,2.5068957E-1,1.8465188E0,1.2735214E0,1.2764039E0,4.055605E-1,-6.078443E-2,8.0454504E-1,1.898886E-1,-5.6875753E-1,-4.353158E-2,1.0702515E0,2.8909993E-1,-3.7933323E-1,-3.455431E-2,1.8701015E0,6.955474E-1,1.3476484E0,7.0504403E-1,1.4975654E0,1.2749882E-1,9.545484E-2,1.526358E0,4.54116E-1,2.0017858E-1,-5.7418054E-1,-1.0999336E-2,1.1614113E-1,1.4470655E-1,2.700372E-2,3.1794656E-2,-4.2879645E-2,1.22526055E-2,1.8858783E-1,-3.34987E-2,7.834164E-2,-2.3853391E-2,1.3681829E-1,1.0334418E-1,-6.046328E-3,-7.3645203E-3,1.5493138E-1,9.6705936E-2,-8.63219E-3,-4.7324933E-2,1.6742866E-1,-5.834719E-2,6.578261E-2,2.1505637E-2,-5.8437914E-2],"categories":[],"categories_nodes":[],"categories_segments":[],"categories_sizes":[],"default_left":[0,0,0,0,0,0,0,0,0,0,0,0,0,0,0,0,0,0,0,0,0,0,0,0,0,0,0,0,0,0,0,0,0,0,0,0,0,0,0,0,0,0,0,0,0,0,0,0,0,0,0,0,0,0,0,0,0,0,0,0,0,0,0,0,0,0,0,0,0,0,0,0,0,0,0,0,0,0,0,0,0],"id":2,"left_children":[1,3,5,-1,7,9,11,-1,-1,13,15,17,19,21,23,-1,25,-1,-1,27,29,-1,-1,-1,31,-1,33,-1,35,37,39,41,43,45,47,49,51,-1,53,-1,55,-1,57,59,61,-1,63,65,67,69,71,-1,73,75,77,-1,79,-1,-1,-1,-1,-1,-1,-1,-1,-1,-1,-1,-1,-1,-1,-1,-1,-1,-1,-1,-1,-1,-1,-1,-1],"loss_changes":[2.4579397E3,2.5634521E1,1.7494409E3,0E0,1.097168E0,3.515774E2,6.172452E2,0E0,0E0,1.7135573E2,6.0703247E1,1.06191925E2,4.4099756E2,2.517569E1,4.546364E1,0E0,3.816565E1,0E0,0E0,5.776384E1,1.4390576E2,0E0,0E0,0E0,3.1906967E1,0E0,2.9732544E1,0E0,1.5226395E1,9.807495E1,1.3112354E2,6.343666E0,2.7732811E1,6.748047E0,2.1540527E1,1.9004059E1,6.7100606E0,0E0,3.3293015E1,0E0,6.383435E1,0E0,6.287689E0,2.3370903E1,2.4135408E0,0E0,2.9930115E0,5.8500156E0,1.5437622E1,1.1674252E1,9.3472595E0,0E0,3.2139132E0,1.3656258E1,1.980289E1,0E0,3.625E1,0E0,0E0,0E0,0E0,0E0,0E0,0E0,0E0,0E0,0E0,0E0,0E0,0E0,0E0,0E0,0E0,0E0,0E0,0E0,0E0,0E0,0E0,0E0,0E0],"parents":[2147483647,0,0,1,1,2,2,4,4,5,5,6,6,9,9,10,10,11,11,12,12,13,13,14,14,16,16,19,19,20,20,24,24,26,26,28,28,29,29,30,30,31,31,32,32,33,33,34,34,35,35,36,36,38,38,40,40,42,42,43,43,44,44,46,46,47,47,48,48,49,49,50,50,52,52,53,53,54,54,56,56],"right_children":[2,4,6,-1,8,10,12,-1,-1,14,16,18,20,22,24,-1,26,-1,-1,28,30,-1,-1,-1,32,-1,34,-1,36,38,40,42,44,46,48,50,52,-1,54,-1,56,-1,58,60,62,-1,64,66,68,70,72,-1,74,76,78,-1,80,-1,-1,-1,-1,-1,-1,-1,-1,-1,-1,-1,-1,-1,-1,-1,-1,-1,-1,-1,-1,-1,-1,-1,-1],"split_conditions":[2.00001E0,2.00001E0,2.00001E0,-4.9348217E-2,2.00001E0,2.00001E0,2.00001E0,1.9425534E-1,4.958207E-2,2.00001E0,2.00001E0,2.00001E0,2.00001E0,2.00001E0,2.00001E0,-5.8264136E-2,2.00001E0,1.931399E-1,-5.8616925E-2,2.00001E0,2.00001E0,-4.979382E-2,1.8951437E-1,1.7991434E-1,2.00001E0,-5.599935E-2,2.00001E0,-5.8681767E-2,2.00001E0,2.00001E0,2.00001E0,2.00001E0,2.00001E0,2.00001E0,2.00001E0,2.00001E0,2.00001E0,-6.078443E-2,2.00001E0,1.898886E-1,2.00001E0,-4.353158E-2,2.00001E0,2.00001E0,2.00001E0,-3.455431E-2,2.00001E0,2.00001E0,2.00001E0,2.00001E0,2.00001E0,1.2749882E-1,2.00001E0,2.00001E0,2.00001E0,2.0017858E-1,2.00001E0,-1.0999336E-2,1.1614113E-1,1.4470655E-1,2.700372E-2,3.1794656E-2,-4.2879645E-2,1.22526055E-2,1.8858783E-1,-3.34987E-2,7.834164E-2,-2.3853391E-2,1.3681829E-1,1.0334418E-1,-6.046328E-3,-7.3645203E-3,1.5493138E-1,9.6705936E-2,-8.63219E-3,-4.7324933E-2,1.6742866E-1,-5.834719E-2,6.578261E-2,2.1505637E-2,-5.8437914E-2],"split_indices":[953,64,1725,0,2340,702,1146,0,0,1186,1138,372,1616,1246,2110,0,498,0,0,134,973,0,0,0,721,0,893,0,719,327,1084,2145,48,2222,1204,620,666,0,485,0,549,0,903,2132,7,0,2223,340,836,1728,350,0,669,1213,826,0,210,0,0,0,0,0,0,0,0,0,0,0,0,0,0,0,0,0,0,0,0,0,0,0,0],"split_type":[0,0,0,0,0,0,0,0,0,0,0,0,0,0,0,0,0,0,0,0,0,0,0,0,0,0,0,0,0,0,0,0,0,0,0,0,0,0,0,0,0,0,0,0,0,0,0,0,0,0,0,0,0,0,0,0,0,0,0,0,0,0,0,0,0,0,0,0,0,0,0,0,0,0,0,0,0,0,0,0,0],"sum_hessian":[7.710929E3,6.6372046E2,7.047209E3,3.989409E0,6.59731E2,1.9704788E3,5.07673E3,6.584025E2,1.3285129E0,1.3038693E3,6.666095E2,1.4781572E2,4.9289146E3,8.541135E1,1.2184579E3,1.6130043E1,6.504795E2,1.290464E2,1.876932E1,2.0251663E2,4.726398E3,4.2536054E0,8.115774E1,1.9296198E1,1.1991617E3,9.793542E0,6.406859E2,2.0429047E1,1.8208759E2,2.1000055E2,4.5163975E3,5.8680935E1,1.1404808E3,1.17035355E2,5.236506E2,1.5774857E2,2.4339014E1,7.663832E1,1.3336224E2,2.068858E1,4.4957085E3,2.4275887E0,5.6253345E1,1.0754551E3,6.502573E1,1.1003807E0,1.15934975E2,6.070576E1,4.6294482E2,4.5190083E1,1.1255849E2,5.5808372E0,1.8758177E1,4.2488613E1,9.087363E1,8.689589E0,4.487019E3,4.018559E0,5.2234787E1,1.6204462E1,1.0592506E3,3.947675E0,6.1078056E1,1.1157134E0,1.1481926E2,4.5484805E0,5.615728E1,5.7809496E0,4.5716388E2,3.1378777E1,1.3811307E1,3.575459E0,1.08983025E2,2.4915175E0,1.626666E1,2.7752566E0,3.9713356E1,1.4607381E1,7.626624E1,5.6985626E1,4.4300337E3],"tree_param":{"num_deleted":"0","num_feature":"2341","num_nodes":"81","size_leaf_vector":"1"}},{"base_weights":[-6.1063135E-1,1.4185232E-1,-6.1130863E-2],"categories":[],"categories_nodes":[],"categories_segments":[],"categories_sizes":[],"default_left":[0,0,0],"id":3,"left_children":[1,-1,-1],"loss_changes":[1.0896973E1,0E0,0E0],"parents":[2147483647,0,0],"right_children":[2,-1,-1],"split_conditions":[2.00001E0,1.4185232E-1,-6.1130863E-2],"split_indices":[16,0,0],"split_type":[0,0,0],"sum_hessian":[7.297071E3,1.7361699E0,7.2953345E3],"tree_param":{"num_deleted":"0","num_feature":"2341","num_nodes":"3","size_leaf_vector":"1"}},{"base_weights":[1.6753124E-2,1.4045336E0,-4.264442E-1,1.6623544E0,-5.4251754E-1,1.4068959E0,-4.909442E-1,-5.8623012E-2,1.6812805E0,-4.455138E-2,-5.5934846E-1,1.6076456E0,-4.3727183E-1,1.6011791E-1,-5.5954343E-1,-5.544893E-2,1.6942506E0,-4.2256735E-2,1.7482098E-2,-3.2789612E-1,-5.8566785E-1,4.5415002E-1,1.7779216E0,4.868583E-2,-5.2896154E-1,-5.8827456E-2,4.502506E-1,1.9407453E-1,-5.761068E-1,-5.63683E-2,1.7065531E0,-4.605582E-2,-2.8511902E-2,1.400041E-2,-5.909013E-1,-5.728368E-2,1.2276211E0,6.3187253E-1,1.7933019E0,-8.9720674E-2,-5.7579726E-2,3.2278356E-1,1.9340303E0,1.2064773E-1,-5.790032E-1,1.1241448E0,1.7516638E0,5.194028E-3,-5.961849E-1,4.419261E-2,1.2807612E-1,1.0691997E-1,5.6949764E-4,7.625135E-2,1.8086706E-1,-3.1720173E-2,1.8260319E-2,-5.970354E-2,4.2564043E-1,2.0212765E-1,1.0060745E0,1.5400775E-1,-5.805445E-1,1.9246317E-1,7.36057E-1,1.626225E-1,1.7675778E0,-7.371545E-3,-6.01538E-2,-5.955221E-2,5.427804E-1,1.3250725E-1,3.1090615E-2,7.993003E-2,-5.811285E-1,-5.570208E-2,8.7599985E-2,-5.466652E-2,7.5237826E-2,-5.3396482E-2,1.7766534E-1,2.0035684E-1,5.1042885E-2,6.459272E-2,-5.8171052E-2],"categories":[],"categories_nodes":[],"categories_segments":[],"categories_sizes":[],"default_left":[0,0,0,0,0,0,0,0,0,0,0,0,0,0,0,0,0,0,0,0,0,0,0,0,0,0,0,0,0,0,0,0,0,0,0,0,0,0,0,0,0,0,0,0,0,0,0,0,0,0,0,0,0,0,0,0,0,0,0,0,0,0,0,0,0,0,0,0,0,0,0,0,0,0,0,0,0,0,0,0,0,0,0,0,0],"id":4,"left_children":[1,3,5,7,9,11,13,-1,15,17,19,21,23,25,27,-1,29,-1,-1,31,33,35,37,-1,39,-1,41,-1,43,-1,45,-1,-1,-1,47,-1,49,51,53,55,-1,57,59,-1,61,63,65,-1,67,-1,-1,-1,-1,-1,-1,-1,-1,-1,69,-1,71,-1,73,-1,75,77,79,-1,-1,-1,81,-1,-1,-1,83,-1,-1,-1,-1,-1,-1,-1,-1,-1,-1],"loss_changes":[4.715983E3,9.32573E2,6.879126E2,7.074463E1,1.8003006E0,7.392099E1,2.508601E2,0E0,4.8083496E1,7.544112E-1,1.090683E0,3.42659E1,1.9692559E0,1.1664595E2,2.1148975E2,0E0,4.586914E1,0E0,0E0,3.588438E-3,7.9592896E-1,2.0015644E1,1.6035156E0,0E0,3.362732E-1,0E0,7.2535515E1,0E0,2.675769E1,0E0,4.0280273E1,0E0,0E0,0E0,6.6490936E-1,0E0,2.62928E-2,9.7976506E-1,1.0393066E0,2.438643E-1,0E0,3.40691E1,4.27742E-1,0E0,1.7353638E1,3.536374E1,3.7410156E1,0E0,4.7364044E-1,0E0,0E0,0E0,0E0,0E0,0E0,0E0,0E0,0E0,3.8846733E1,0E0,6.0892344E-1,0E0,4.5231934E0,0E0,1.5209938E1,7.0550528E0,3.1775879E1,0E0,0E0,0E0,1.2655594E1,0E0,0E0,0E0,3.972046E0,0E0,0E0,0E0,0E0,0E0,0E0,0E0,0E0,0E0,0E0],"parents":[2147483647,0,0,1,1,2,2,3,3,4,4,5,5,6,6,8,8,9,9,10,10,11,11,12,12,13,13,14,14,16,16,19,19,20,20,21,21,22,22,24,24,26,26,28,28,30,30,34,34,36,36,37,37,38,38,39,39,41,41,42,42,44,44,45,45,46,46,48,48,58,58,60,60,62,62,64,64,65,65,66,66,70,70,74,74],"right_children":[2,4,6,8,10,12,14,-1,16,18,20,22,24,26,28,-1,30,-1,-1,32,34,36,38,-1,40,-1,42,-1,44,-1,46,-1,-1,-1,48,-1,50,52,54,56,-1,58,60,-1,62,64,66,-1,68,-1,-1,-1,-1,-1,-1,-1,-1,-1,70,-1,72,-1,74,-1,76,78,80,-1,-1,-1,82,-1,-1,-1,84,-1,-1,-1,-1,-1,-1,-1,-1,-1,-1],"split_conditions":[2.00001E0,2.00001E0,2.00001E0,2.00001E0,2.00001E0,2.00001E0,2.00001E0,-5.8623012E-2,2.00001E0,2.00001E0,2.00001E0,2.00001E0,2.00001E0,2.00001E0,2.00001E0,-5.544893E-2,2.00001E0,-4.2256735E-2,1.7482098E-2,2.00001E0,2.00001E0,2.00001E0,2.00001E0,4.868583E-2,2.00001E0,-5.8827456E-2,2.00001E0,1.9407453E-1,2.00001E0,-5.63683E-2,2.00001E0,-4.605582E-2,-2.8511902E-2,1.400041E-2,2.00001E0,-5.728368E-2,2.00001E0,2.00001E0,2.00001E0,2.00001E0,-5.7579726E-2,2.00001E0,2.00001E0,1.2064773E-1,2.00001E0,2.00001E0,2.00001E0,5.194028E-3,2.00001E0,4.419261E-2,1.2807612E-1,1.0691997E-1,5.6949764E-4,7.625135E-2,1.8086706E-1,-3.1720173E-2,1.8260319E-2,-5.970354E-2,2.00001E0,2.0212765E-1,2.00001E0,1.5400775E-1,2.00001E0,1.9246317E-1,2.00001E0,2.00001E0,2.00001E0,-7.371545E-3,-6.01538E-2,-5.955221E-2,2.00001E0,1.3250725E-1,3.1090615E-2,7.993003E-2,2.00001E0,-5.570208E-2,8.7599985E-2,-5.466652E-2,7.5237826E-2,-5.3396482E-2,1.7766534E-1,2.0035684E-1,5.1042885E-2,6.459272E-2,-5.8171052E-2],"split_indices":[466,1082,1334,828,897,403,49,0,433,1019,896,560,588,564,1058,0,841,0,0,1019,894,287,821,0,45,0,486,0,97,0,894,0,0,0,890,0,832,1100,830,871,0,524,1061,0,195,2001,1722,0,910,0,0,0,0,0,0,0,0,0,1061,0,827,0,1466,0,516,906,835,0,0,0,1060,0,0,0,189,0,0,0,0,0,0,0,0,0,0],"split_type":[0,0,0,0,0,0,0,0,0,0,0,0,0,0,0,0,0,0,0,0,0,0,0,0,0,0,0,0,0,0,0,0,0,0,0,0,0,0,0,0,0,0,0,0,0,0,0,0,0,0,0,0,0,0,0,0,0,0,0,0,0,0,0,0,0,0,0,0,0,0,0,0,0,0,0,0,0,0,0,0,0,0,0,0,0],"sum_hessian":[7.6655356E3,1.854956E3,5.8105796E3,1.638181E3,2.1677512E2,1.9677106E2,5.6138086E3,1.3423192E1,1.6247578E3,7.206539E0,2.0956857E2,1.775697E2,1.9201366E1,5.3498956E2,5.078819E3,9.130332E0,1.6156274E3,2.3062394E0,4.9002995E0,2.2771818E1,1.8679675E2,2.3312393E1,1.5425731E2,1.344135E0,1.7857231E1,1.4917291E2,3.8581662E2,3.2659134E1,5.0461597E3,8.512268E0,1.6071152E3,3.1710792E0,1.960074E1,1.1531197E0,1.8564365E2,1.0126366E1,1.3186027E1,2.6000514E0,1.5165726E2,2.0015616E0,1.5855669E1,3.564156E2,2.940105E1,7.511879E0,5.038648E3,1.1739467E2,1.4897206E3,1.4413996E0,1.8420224E2,1.4255164E0,1.176051E1,1.1143078E0,1.4857436E0,2.9714873E0,1.4868576E2,1.0007808E0,1.0007808E0,3.5363712E1,3.2105188E2,2.5797382E1,3.6036665E0,2.9365032E0,5.0357114E3,3.7038387E1,8.035628E1,1.4882502E1,1.474838E3,2.0179594E0,1.8218428E2,3.261841E1,2.8843347E2,1.8490565E0,1.7546101E0,1.5517929E0,5.0341597E3,7.5562096E0,7.2800064E1,6.7897124E0,8.092789E0,5.565714E0,1.4692723E3,4.929245E0,2.835042E2,1.86118E0,5.0322983E3],"tree_param":{"num_deleted":"0","num_feature":"2341","num_nodes":"85","size_leaf_vector":"1"}}]},"name":"gbtree"},"learner_model_param":{"base_score":"5E-1","boost_from_average":"1","num_class":"5","num_feature":"2341","num_target":"1"},"objective":{"name":"multi:softprob","softmax_multiclass_param":{"num_class":"5"}}},"version":[2,0,2]}